<?xml version="1.0" ?>

<BIF VERSION="0.3">
<NETWORK>
<NAME>RedBayesianaKMS</NAME>
<PROPERTY>software aGrUM</PROPERTY>

<!-- Variables -->
<VARIABLE TYPE="nature">
	<NAME>Porcentajes</NAME>
	<PROPERTY>Porcentajes</PROPERTY>
	<OUTCOME>0</OUTCOME>
	<OUTCOME>1</OUTCOME>
	<OUTCOME>2</OUTCOME>
</VARIABLE>

<VARIABLE TYPE="nature">
	<NAME>Teorema de Thales de Mileto</NAME>
	<PROPERTY>Teorema de Thales de Mileto</PROPERTY>
	<OUTCOME>0</OUTCOME>
	<OUTCOME>1</OUTCOME>
	<OUTCOME>2</OUTCOME>
</VARIABLE>

<VARIABLE TYPE="nature">
	<NAME>Teorema de Pitágoras</NAME>
	<PROPERTY>Teorema de Pitágoras</PROPERTY>
	<OUTCOME>0</OUTCOME>
	<OUTCOME>1</OUTCOME>
	<OUTCOME>2</OUTCOME>
</VARIABLE>

<VARIABLE TYPE="nature">
	<NAME>Teorema de Euclides</NAME>
	<PROPERTY>Teorema de Euclides</PROPERTY>
	<OUTCOME>0</OUTCOME>
	<OUTCOME>1</OUTCOME>
	<OUTCOME>2</OUTCOME>
</VARIABLE>

<VARIABLE TYPE="nature">
	<NAME>Notación científica</NAME>
	<PROPERTY>Notación científica</PROPERTY>
	<OUTCOME>0</OUTCOME>
	<OUTCOME>1</OUTCOME>
	<OUTCOME>2</OUTCOME>
</VARIABLE>

<VARIABLE TYPE="nature">
	<NAME>Radicales</NAME>
	<PROPERTY>Radicales</PROPERTY>
	<OUTCOME>0</OUTCOME>
	<OUTCOME>1</OUTCOME>
	<OUTCOME>2</OUTCOME>
</VARIABLE>

<VARIABLE TYPE="nature">
	<NAME>Regla  detres</NAME>
	<PROPERTY>Regla  detres</PROPERTY>
	<OUTCOME>0</OUTCOME>
	<OUTCOME>1</OUTCOME>
	<OUTCOME>2</OUTCOME>
</VARIABLE>

<VARIABLE TYPE="nature">
	<NAME>Solución de problemas reales con ecuaciones de segundo grado</NAME>
	<PROPERTY>Solución de problemas reales con ecuaciones de segundo grado</PROPERTY>
	<OUTCOME>0</OUTCOME>
	<OUTCOME>1</OUTCOME>
	<OUTCOME>2</OUTCOME>
</VARIABLE>

<VARIABLE TYPE="nature">
	<NAME>Semezanjas de triangulos</NAME>
	<PROPERTY>Semezanjas de triangulos</PROPERTY>
	<OUTCOME>0</OUTCOME>
	<OUTCOME>1</OUTCOME>
	<OUTCOME>2</OUTCOME>
</VARIABLE>

<VARIABLE TYPE="nature">
	<NAME>Ley de exponentes</NAME>
	<PROPERTY>Ley de exponentes</PROPERTY>
	<OUTCOME>0</OUTCOME>
	<OUTCOME>1</OUTCOME>
	<OUTCOME>2</OUTCOME>
</VARIABLE>

<VARIABLE TYPE="nature">
	<NAME>División de  números  racionales</NAME>
	<PROPERTY>División de  números  racionales</PROPERTY>
	<OUTCOME>0</OUTCOME>
	<OUTCOME>1</OUTCOME>
	<OUTCOME>2</OUTCOME>
</VARIABLE>

<VARIABLE TYPE="nature">
	<NAME>Resta de  números  racionales</NAME>
	<PROPERTY>Resta de  números  racionales</PROPERTY>
	<OUTCOME>0</OUTCOME>
	<OUTCOME>1</OUTCOME>
	<OUTCOME>2</OUTCOME>
</VARIABLE>

<VARIABLE TYPE="nature">
	<NAME>Ecuaciones de segundo grado</NAME>
	<PROPERTY>Ecuaciones de segundo grado</PROPERTY>
	<OUTCOME>0</OUTCOME>
	<OUTCOME>1</OUTCOME>
	<OUTCOME>2</OUTCOME>
</VARIABLE>

<VARIABLE TYPE="nature">
	<NAME>Congruencia de trángulos</NAME>
	<PROPERTY>Congruencia de trángulos</PROPERTY>
	<OUTCOME>0</OUTCOME>
	<OUTCOME>1</OUTCOME>
	<OUTCOME>2</OUTCOME>
</VARIABLE>

<VARIABLE TYPE="nature">
	<NAME>Relación métrica de la circunferencia</NAME>
	<PROPERTY>Relación métrica de la circunferencia</PROPERTY>
	<OUTCOME>0</OUTCOME>
	<OUTCOME>1</OUTCOME>
	<OUTCOME>2</OUTCOME>
</VARIABLE>

<VARIABLE TYPE="nature">
	<NAME>Solución de problemas reales con álgebra lineal</NAME>
	<PROPERTY>Solución de problemas reales con álgebra lineal</PROPERTY>
	<OUTCOME>0</OUTCOME>
	<OUTCOME>1</OUTCOME>
	<OUTCOME>2</OUTCOME>
</VARIABLE>

<VARIABLE TYPE="nature">
	<NAME>Solución de problemas reales con trigonometría</NAME>
	<PROPERTY>Solución de problemas reales con trigonometría</PROPERTY>
	<OUTCOME>0</OUTCOME>
	<OUTCOME>1</OUTCOME>
	<OUTCOME>2</OUTCOME>
</VARIABLE>

<VARIABLE TYPE="nature">
	<NAME>Modelado de funciones</NAME>
	<PROPERTY>Modelado de funciones</PROPERTY>
	<OUTCOME>0</OUTCOME>
	<OUTCOME>1</OUTCOME>
	<OUTCOME>2</OUTCOME>
</VARIABLE>

<VARIABLE TYPE="nature">
	<NAME>Volúmen de un sólido en revolución</NAME>
	<PROPERTY>Volúmen de un sólido en revolución</PROPERTY>
	<OUTCOME>0</OUTCOME>
	<OUTCOME>1</OUTCOME>
	<OUTCOME>2</OUTCOME>
</VARIABLE>

<VARIABLE TYPE="nature">
	<NAME>Suma de números racionales</NAME>
	<PROPERTY>Suma de números racionales</PROPERTY>
	<OUTCOME>0</OUTCOME>
	<OUTCOME>1</OUTCOME>
	<OUTCOME>2</OUTCOME>
</VARIABLE>

<VARIABLE TYPE="nature">
	<NAME>Función  Lineal</NAME>
	<PROPERTY>Función  Lineal</PROPERTY>
	<OUTCOME>0</OUTCOME>
	<OUTCOME>1</OUTCOME>
	<OUTCOME>2</OUTCOME>
</VARIABLE>

<VARIABLE TYPE="nature">
	<NAME>Función Cuadrática</NAME>
	<PROPERTY>Función Cuadrática</PROPERTY>
	<OUTCOME>0</OUTCOME>
	<OUTCOME>1</OUTCOME>
	<OUTCOME>2</OUTCOME>
</VARIABLE>

<VARIABLE TYPE="nature">
	<NAME>Función Polinomial</NAME>
	<PROPERTY>Función Polinomial</PROPERTY>
	<OUTCOME>0</OUTCOME>
	<OUTCOME>1</OUTCOME>
	<OUTCOME>2</OUTCOME>
</VARIABLE>

<VARIABLE TYPE="nature">
	<NAME>Función  Exponencial</NAME>
	<PROPERTY>Función  Exponencial</PROPERTY>
	<OUTCOME>0</OUTCOME>
	<OUTCOME>1</OUTCOME>
	<OUTCOME>2</OUTCOME>
</VARIABLE>

<VARIABLE TYPE="nature">
	<NAME>Funciones  Logarítmicas</NAME>
	<PROPERTY>Funciones  Logarítmicas</PROPERTY>
	<OUTCOME>0</OUTCOME>
	<OUTCOME>1</OUTCOME>
	<OUTCOME>2</OUTCOME>
</VARIABLE>

<VARIABLE TYPE="nature">
	<NAME>Función  Valor absoluto</NAME>
	<PROPERTY>Función  Valor absoluto</PROPERTY>
	<OUTCOME>0</OUTCOME>
	<OUTCOME>1</OUTCOME>
	<OUTCOME>2</OUTCOME>
</VARIABLE>

<VARIABLE TYPE="nature">
	<NAME>Solución de  sistemas de  ecuaciones  por matrices</NAME>
	<PROPERTY>Solución de  sistemas de  ecuaciones  por matrices</PROPERTY>
	<OUTCOME>0</OUTCOME>
	<OUTCOME>1</OUTCOME>
	<OUTCOME>2</OUTCOME>
</VARIABLE>

<VARIABLE TYPE="nature">
	<NAME>División de polinomio entre monomio</NAME>
	<PROPERTY>División de polinomio entre monomio</PROPERTY>
	<OUTCOME>0</OUTCOME>
	<OUTCOME>1</OUTCOME>
	<OUTCOME>2</OUTCOME>
</VARIABLE>

<VARIABLE TYPE="nature">
	<NAME>División de polinomio entre polinomio</NAME>
	<PROPERTY>División de polinomio entre polinomio</PROPERTY>
	<OUTCOME>0</OUTCOME>
	<OUTCOME>1</OUTCOME>
	<OUTCOME>2</OUTCOME>
</VARIABLE>

<VARIABLE TYPE="nature">
	<NAME>Factorización</NAME>
	<PROPERTY>Factorización</PROPERTY>
	<OUTCOME>0</OUTCOME>
	<OUTCOME>1</OUTCOME>
	<OUTCOME>2</OUTCOME>
</VARIABLE>

<VARIABLE TYPE="nature">
	<NAME>Productos notables</NAME>
	<PROPERTY>Productos notables</PROPERTY>
	<OUTCOME>0</OUTCOME>
	<OUTCOME>1</OUTCOME>
	<OUTCOME>2</OUTCOME>
</VARIABLE>

<VARIABLE TYPE="nature">
	<NAME>Perímetros áreas y volúmenes</NAME>
	<PROPERTY>Perímetros áreas y volúmenes</PROPERTY>
	<OUTCOME>0</OUTCOME>
	<OUTCOME>1</OUTCOME>
	<OUTCOME>2</OUTCOME>
</VARIABLE>

<VARIABLE TYPE="nature">
	<NAME>Ley de los Senos</NAME>
	<PROPERTY>Ley de los Senos</PROPERTY>
	<OUTCOME>0</OUTCOME>
	<OUTCOME>1</OUTCOME>
	<OUTCOME>2</OUTCOME>
</VARIABLE>

<VARIABLE TYPE="nature">
	<NAME>Solución de trángulos rectángulos</NAME>
	<PROPERTY>Solución de trángulos rectángulos</PROPERTY>
	<OUTCOME>0</OUTCOME>
	<OUTCOME>1</OUTCOME>
	<OUTCOME>2</OUTCOME>
</VARIABLE>

<VARIABLE TYPE="nature">
	<NAME>Funciones Trigonométricas</NAME>
	<PROPERTY>Funciones Trigonométricas</PROPERTY>
	<OUTCOME>0</OUTCOME>
	<OUTCOME>1</OUTCOME>
	<OUTCOME>2</OUTCOME>
</VARIABLE>

<VARIABLE TYPE="nature">
	<NAME>Sólido de revolución</NAME>
	<PROPERTY>Sólido de revolución</PROPERTY>
	<OUTCOME>0</OUTCOME>
	<OUTCOME>1</OUTCOME>
	<OUTCOME>2</OUTCOME>
</VARIABLE>

<VARIABLE TYPE="nature">
	<NAME>Mínimo común múltiplo</NAME>
	<PROPERTY>Mínimo común múltiplo</PROPERTY>
	<OUTCOME>0</OUTCOME>
	<OUTCOME>1</OUTCOME>
	<OUTCOME>2</OUTCOME>
</VARIABLE>

<VARIABLE TYPE="nature">
	<NAME>Máximo común divisor</NAME>
	<PROPERTY>Máximo común divisor</PROPERTY>
	<OUTCOME>0</OUTCOME>
	<OUTCOME>1</OUTCOME>
	<OUTCOME>2</OUTCOME>
</VARIABLE>

<VARIABLE TYPE="nature">
	<NAME>Ecuaciones trigonometricas</NAME>
	<PROPERTY>Ecuaciones trigonometricas</PROPERTY>
	<OUTCOME>0</OUTCOME>
	<OUTCOME>1</OUTCOME>
	<OUTCOME>2</OUTCOME>
</VARIABLE>

<VARIABLE TYPE="nature">
	<NAME>Ley de los Cosenos</NAME>
	<PROPERTY>Ley de los Cosenos</PROPERTY>
	<OUTCOME>0</OUTCOME>
	<OUTCOME>1</OUTCOME>
	<OUTCOME>2</OUTCOME>
</VARIABLE>

<VARIABLE TYPE="nature">
	<NAME>Regla  de  Cramer</NAME>
	<PROPERTY>Regla  de  Cramer</PROPERTY>
	<OUTCOME>0</OUTCOME>
	<OUTCOME>1</OUTCOME>
	<OUTCOME>2</OUTCOME>
</VARIABLE>

<VARIABLE TYPE="nature">
	<NAME>Método de Gauss Jordan</NAME>
	<PROPERTY>Método de Gauss Jordan</PROPERTY>
	<OUTCOME>0</OUTCOME>
	<OUTCOME>1</OUTCOME>
	<OUTCOME>2</OUTCOME>
</VARIABLE>

<VARIABLE TYPE="nature">
	<NAME>Matriz  Inversa</NAME>
	<PROPERTY>Matriz  Inversa</PROPERTY>
	<OUTCOME>0</OUTCOME>
	<OUTCOME>1</OUTCOME>
	<OUTCOME>2</OUTCOME>
</VARIABLE>

<VARIABLE TYPE="nature">
	<NAME>División de  términos  algebraicos</NAME>
	<PROPERTY>División de  términos  algebraicos</PROPERTY>
	<OUTCOME>0</OUTCOME>
	<OUTCOME>1</OUTCOME>
	<OUTCOME>2</OUTCOME>
</VARIABLE>

<VARIABLE TYPE="nature">
	<NAME>Razón y proporciones</NAME>
	<PROPERTY>Razón y proporciones</PROPERTY>
	<OUTCOME>0</OUTCOME>
	<OUTCOME>1</OUTCOME>
	<OUTCOME>2</OUTCOME>
</VARIABLE>

<VARIABLE TYPE="nature">
	<NAME>Multiplicación de polinomios</NAME>
	<PROPERTY>Multiplicación de polinomios</PROPERTY>
	<OUTCOME>0</OUTCOME>
	<OUTCOME>1</OUTCOME>
	<OUTCOME>2</OUTCOME>
</VARIABLE>

<VARIABLE TYPE="nature">
	<NAME>Postulados y teoremas</NAME>
	<PROPERTY>Postulados y teoremas</PROPERTY>
	<OUTCOME>0</OUTCOME>
	<OUTCOME>1</OUTCOME>
	<OUTCOME>2</OUTCOME>
</VARIABLE>

<VARIABLE TYPE="nature">
	<NAME>Hipérbola</NAME>
	<PROPERTY>Hipérbola</PROPERTY>
	<OUTCOME>0</OUTCOME>
	<OUTCOME>1</OUTCOME>
	<OUTCOME>2</OUTCOME>
</VARIABLE>

<VARIABLE TYPE="nature">
	<NAME>Optimizacion</NAME>
	<PROPERTY>Optimizacion</PROPERTY>
	<OUTCOME>0</OUTCOME>
	<OUTCOME>1</OUTCOME>
	<OUTCOME>2</OUTCOME>
</VARIABLE>

<VARIABLE TYPE="nature">
	<NAME>Áreas bajo la curva</NAME>
	<PROPERTY>Áreas bajo la curva</PROPERTY>
	<OUTCOME>0</OUTCOME>
	<OUTCOME>1</OUTCOME>
	<OUTCOME>2</OUTCOME>
</VARIABLE>

<VARIABLE TYPE="nature">
	<NAME>Común denominador</NAME>
	<PROPERTY>Común denominador</PROPERTY>
	<OUTCOME>0</OUTCOME>
	<OUTCOME>1</OUTCOME>
	<OUTCOME>2</OUTCOME>
</VARIABLE>

<VARIABLE TYPE="nature">
	<NAME>Ley de signos</NAME>
	<PROPERTY>Ley de signos</PROPERTY>
	<OUTCOME>0</OUTCOME>
	<OUTCOME>1</OUTCOME>
	<OUTCOME>2</OUTCOME>
</VARIABLE>

<VARIABLE TYPE="nature">
	<NAME>Exponentes de números enteros elevados a números enteros</NAME>
	<PROPERTY>Exponentes de números enteros elevados a números enteros</PROPERTY>
	<OUTCOME>0</OUTCOME>
	<OUTCOME>1</OUTCOME>
	<OUTCOME>2</OUTCOME>
</VARIABLE>

<VARIABLE TYPE="nature">
	<NAME>División  aritmética de números enteros</NAME>
	<PROPERTY>División  aritmética de números enteros</PROPERTY>
	<OUTCOME>0</OUTCOME>
	<OUTCOME>1</OUTCOME>
	<OUTCOME>2</OUTCOME>
</VARIABLE>

<VARIABLE TYPE="nature">
	<NAME>Dominio y rango de una función</NAME>
	<PROPERTY>Dominio y rango de una función</PROPERTY>
	<OUTCOME>0</OUTCOME>
	<OUTCOME>1</OUTCOME>
	<OUTCOME>2</OUTCOME>
</VARIABLE>

<VARIABLE TYPE="nature">
	<NAME>Identidades  trigonométricas</NAME>
	<PROPERTY>Identidades  trigonométricas</PROPERTY>
	<OUTCOME>0</OUTCOME>
	<OUTCOME>1</OUTCOME>
	<OUTCOME>2</OUTCOME>
</VARIABLE>

<VARIABLE TYPE="nature">
	<NAME>Determinantes</NAME>
	<PROPERTY>Determinantes</PROPERTY>
	<OUTCOME>0</OUTCOME>
	<OUTCOME>1</OUTCOME>
	<OUTCOME>2</OUTCOME>
</VARIABLE>

<VARIABLE TYPE="nature">
	<NAME>Multiplicación de  términos algebraicos</NAME>
	<PROPERTY>Multiplicación de  términos algebraicos</PROPERTY>
	<OUTCOME>0</OUTCOME>
	<OUTCOME>1</OUTCOME>
	<OUTCOME>2</OUTCOME>
</VARIABLE>

<VARIABLE TYPE="nature">
	<NAME>Multiplicación de  números  racionales</NAME>
	<PROPERTY>Multiplicación de  números  racionales</PROPERTY>
	<OUTCOME>0</OUTCOME>
	<OUTCOME>1</OUTCOME>
	<OUTCOME>2</OUTCOME>
</VARIABLE>

<VARIABLE TYPE="nature">
	<NAME>Exponentes de números racionales a numeros enteros</NAME>
	<PROPERTY>Exponentes de números racionales a numeros enteros</PROPERTY>
	<OUTCOME>0</OUTCOME>
	<OUTCOME>1</OUTCOME>
	<OUTCOME>2</OUTCOME>
</VARIABLE>

<VARIABLE TYPE="nature">
	<NAME>Solución de problemas reales con sistemas de ecuaciones</NAME>
	<PROPERTY>Solución de problemas reales con sistemas de ecuaciones</PROPERTY>
	<OUTCOME>0</OUTCOME>
	<OUTCOME>1</OUTCOME>
	<OUTCOME>2</OUTCOME>
</VARIABLE>

<VARIABLE TYPE="nature">
	<NAME>Cuadrilateros</NAME>
	<PROPERTY>Cuadrilateros</PROPERTY>
	<OUTCOME>0</OUTCOME>
	<OUTCOME>1</OUTCOME>
	<OUTCOME>2</OUTCOME>
</VARIABLE>

<VARIABLE TYPE="nature">
	<NAME>Elipse</NAME>
	<PROPERTY>Elipse</PROPERTY>
	<OUTCOME>0</OUTCOME>
	<OUTCOME>1</OUTCOME>
	<OUTCOME>2</OUTCOME>
</VARIABLE>

<VARIABLE TYPE="nature">
	<NAME>Razones de cambio relacionadas</NAME>
	<PROPERTY>Razones de cambio relacionadas</PROPERTY>
	<OUTCOME>0</OUTCOME>
	<OUTCOME>1</OUTCOME>
	<OUTCOME>2</OUTCOME>
</VARIABLE>

<VARIABLE TYPE="nature">
	<NAME>Integral definida</NAME>
	<PROPERTY>Integral definida</PROPERTY>
	<OUTCOME>0</OUTCOME>
	<OUTCOME>1</OUTCOME>
	<OUTCOME>2</OUTCOME>
</VARIABLE>

<VARIABLE TYPE="nature">
	<NAME>Multiplicación aritmética de números enteros</NAME>
	<PROPERTY>Multiplicación aritmética de números enteros</PROPERTY>
	<OUTCOME>0</OUTCOME>
	<OUTCOME>1</OUTCOME>
	<OUTCOME>2</OUTCOME>
</VARIABLE>

<VARIABLE TYPE="nature">
	<NAME>Números racionales</NAME>
	<PROPERTY>Números racionales</PROPERTY>
	<OUTCOME>0</OUTCOME>
	<OUTCOME>1</OUTCOME>
	<OUTCOME>2</OUTCOME>
</VARIABLE>

<VARIABLE TYPE="nature">
	<NAME>Ángulos y sus  razones  trigonométricas</NAME>
	<PROPERTY>Ángulos y sus  razones  trigonométricas</PROPERTY>
	<OUTCOME>0</OUTCOME>
	<OUTCOME>1</OUTCOME>
	<OUTCOME>2</OUTCOME>
</VARIABLE>

<VARIABLE TYPE="nature">
	<NAME>Triángulos</NAME>
	<PROPERTY>Triángulos</PROPERTY>
	<OUTCOME>0</OUTCOME>
	<OUTCOME>1</OUTCOME>
	<OUTCOME>2</OUTCOME>
</VARIABLE>

<VARIABLE TYPE="nature">
	<NAME>Transpuesta</NAME>
	<PROPERTY>Transpuesta</PROPERTY>
	<OUTCOME>0</OUTCOME>
	<OUTCOME>1</OUTCOME>
	<OUTCOME>2</OUTCOME>
</VARIABLE>

<VARIABLE TYPE="nature">
	<NAME>Sistemas  de  ecuaciones</NAME>
	<PROPERTY>Sistemas  de  ecuaciones</PROPERTY>
	<OUTCOME>0</OUTCOME>
	<OUTCOME>1</OUTCOME>
	<OUTCOME>2</OUTCOME>
</VARIABLE>

<VARIABLE TYPE="nature">
	<NAME>Suma  y resta de  terminos algebraicos</NAME>
	<PROPERTY>Suma  y resta de  terminos algebraicos</PROPERTY>
	<OUTCOME>0</OUTCOME>
	<OUTCOME>1</OUTCOME>
	<OUTCOME>2</OUTCOME>
</VARIABLE>

<VARIABLE TYPE="nature">
	<NAME>Circunferencia</NAME>
	<PROPERTY>Circunferencia</PROPERTY>
	<OUTCOME>0</OUTCOME>
	<OUTCOME>1</OUTCOME>
	<OUTCOME>2</OUTCOME>
</VARIABLE>

<VARIABLE TYPE="nature">
	<NAME>Formas de expresar funciones matemáticas</NAME>
	<PROPERTY>Formas de expresar funciones matemáticas</PROPERTY>
	<OUTCOME>0</OUTCOME>
	<OUTCOME>1</OUTCOME>
	<OUTCOME>2</OUTCOME>
</VARIABLE>

<VARIABLE TYPE="nature">
	<NAME>Reglas de derivación</NAME>
	<PROPERTY>Reglas de derivación</PROPERTY>
	<OUTCOME>0</OUTCOME>
	<OUTCOME>1</OUTCOME>
	<OUTCOME>2</OUTCOME>
</VARIABLE>

<VARIABLE TYPE="nature">
	<NAME>Métodos de integración</NAME>
	<PROPERTY>Métodos de integración</PROPERTY>
	<OUTCOME>0</OUTCOME>
	<OUTCOME>1</OUTCOME>
	<OUTCOME>2</OUTCOME>
</VARIABLE>

<VARIABLE TYPE="nature">
	<NAME>Tablas de  multiplicar</NAME>
	<PROPERTY>Tablas de  multiplicar</PROPERTY>
	<OUTCOME>0</OUTCOME>
	<OUTCOME>1</OUTCOME>
	<OUTCOME>2</OUTCOME>
</VARIABLE>

<VARIABLE TYPE="nature">
	<NAME>Clasificación de los números</NAME>
	<PROPERTY>Clasificación de los números</PROPERTY>
	<OUTCOME>0</OUTCOME>
	<OUTCOME>1</OUTCOME>
	<OUTCOME>2</OUTCOME>
</VARIABLE>

<VARIABLE TYPE="nature">
	<NAME>Operaciones  aritméticas  compuestas</NAME>
	<PROPERTY>Operaciones  aritméticas  compuestas</PROPERTY>
	<OUTCOME>0</OUTCOME>
	<OUTCOME>1</OUTCOME>
	<OUTCOME>2</OUTCOME>
</VARIABLE>

<VARIABLE TYPE="nature">
	<NAME>Conceptos de  funciones  matemáticas</NAME>
	<PROPERTY>Conceptos de  funciones  matemáticas</PROPERTY>
	<OUTCOME>0</OUTCOME>
	<OUTCOME>1</OUTCOME>
	<OUTCOME>2</OUTCOME>
</VARIABLE>

<VARIABLE TYPE="nature">
	<NAME>Razones  trigonométricas</NAME>
	<PROPERTY>Razones  trigonométricas</PROPERTY>
	<OUTCOME>0</OUTCOME>
	<OUTCOME>1</OUTCOME>
	<OUTCOME>2</OUTCOME>
</VARIABLE>

<VARIABLE TYPE="nature">
	<NAME>Polígonos</NAME>
	<PROPERTY>Polígonos</PROPERTY>
	<OUTCOME>0</OUTCOME>
	<OUTCOME>1</OUTCOME>
	<OUTCOME>2</OUTCOME>
</VARIABLE>

<VARIABLE TYPE="nature">
	<NAME>Operaciones  con  matrices</NAME>
	<PROPERTY>Operaciones  con  matrices</PROPERTY>
	<OUTCOME>0</OUTCOME>
	<OUTCOME>1</OUTCOME>
	<OUTCOME>2</OUTCOME>
</VARIABLE>

<VARIABLE TYPE="nature">
	<NAME>Métodos analíticos para la resolución de sistemas de ecuaciones</NAME>
	<PROPERTY>Métodos analíticos para la resolución de sistemas de ecuaciones</PROPERTY>
	<OUTCOME>0</OUTCOME>
	<OUTCOME>1</OUTCOME>
	<OUTCOME>2</OUTCOME>
</VARIABLE>

<VARIABLE TYPE="nature">
	<NAME>Ecuaciones de  primer grado</NAME>
	<PROPERTY>Ecuaciones de  primer grado</PROPERTY>
	<OUTCOME>0</OUTCOME>
	<OUTCOME>1</OUTCOME>
	<OUTCOME>2</OUTCOME>
</VARIABLE>

<VARIABLE TYPE="nature">
	<NAME>Lenguaje común y lenguaje algebraico</NAME>
	<PROPERTY>Lenguaje común y lenguaje algebraico</PROPERTY>
	<OUTCOME>0</OUTCOME>
	<OUTCOME>1</OUTCOME>
	<OUTCOME>2</OUTCOME>
</VARIABLE>

<VARIABLE TYPE="nature">
	<NAME>Recta</NAME>
	<PROPERTY>Recta</PROPERTY>
	<OUTCOME>0</OUTCOME>
	<OUTCOME>1</OUTCOME>
	<OUTCOME>2</OUTCOME>
</VARIABLE>

<VARIABLE TYPE="nature">
	<NAME>Razón de cambio</NAME>
	<PROPERTY>Razón de cambio</PROPERTY>
	<OUTCOME>0</OUTCOME>
	<OUTCOME>1</OUTCOME>
	<OUTCOME>2</OUTCOME>
</VARIABLE>

<VARIABLE TYPE="nature">
	<NAME>Reglas de integración inmediatas</NAME>
	<PROPERTY>Reglas de integración inmediatas</PROPERTY>
	<OUTCOME>0</OUTCOME>
	<OUTCOME>1</OUTCOME>
	<OUTCOME>2</OUTCOME>
</VARIABLE>

<VARIABLE TYPE="nature">
	<NAME>Suma aritmética de números enteros</NAME>
	<PROPERTY>Suma aritmética de números enteros</PROPERTY>
	<OUTCOME>0</OUTCOME>
	<OUTCOME>1</OUTCOME>
	<OUTCOME>2</OUTCOME>
</VARIABLE>

<VARIABLE TYPE="nature">
	<NAME>Conjuntos Numericos</NAME>
	<PROPERTY>Conjuntos Numericos</PROPERTY>
	<OUTCOME>0</OUTCOME>
	<OUTCOME>1</OUTCOME>
	<OUTCOME>2</OUTCOME>
</VARIABLE>

<VARIABLE TYPE="nature">
	<NAME>Matrices</NAME>
	<PROPERTY>Matrices</PROPERTY>
	<OUTCOME>0</OUTCOME>
	<OUTCOME>1</OUTCOME>
	<OUTCOME>2</OUTCOME>
</VARIABLE>

<VARIABLE TYPE="nature">
	<NAME>Jerarquías de las operaciones aritméticas</NAME>
	<PROPERTY>Jerarquías de las operaciones aritméticas</PROPERTY>
	<OUTCOME>0</OUTCOME>
	<OUTCOME>1</OUTCOME>
	<OUTCOME>2</OUTCOME>
</VARIABLE>

<VARIABLE TYPE="nature">
	<NAME>Resta aritmética de números enteros</NAME>
	<PROPERTY>Resta aritmética de números enteros</PROPERTY>
	<OUTCOME>0</OUTCOME>
	<OUTCOME>1</OUTCOME>
	<OUTCOME>2</OUTCOME>
</VARIABLE>

<VARIABLE TYPE="nature">
	<NAME>Círculo  unitario</NAME>
	<PROPERTY>Círculo  unitario</PROPERTY>
	<OUTCOME>0</OUTCOME>
	<OUTCOME>1</OUTCOME>
	<OUTCOME>2</OUTCOME>
</VARIABLE>

<VARIABLE TYPE="nature">
	<NAME>Ángulos</NAME>
	<PROPERTY>Ángulos</PROPERTY>
	<OUTCOME>0</OUTCOME>
	<OUTCOME>1</OUTCOME>
	<OUTCOME>2</OUTCOME>
</VARIABLE>

<VARIABLE TYPE="nature">
	<NAME>Ecuaciones algebraicas</NAME>
	<PROPERTY>Ecuaciones algebraicas</PROPERTY>
	<OUTCOME>0</OUTCOME>
	<OUTCOME>1</OUTCOME>
	<OUTCOME>2</OUTCOME>
</VARIABLE>

<VARIABLE TYPE="nature">
	<NAME>Operaciones básicas del álgebra</NAME>
	<PROPERTY>Operaciones básicas del álgebra</PROPERTY>
	<OUTCOME>0</OUTCOME>
	<OUTCOME>1</OUTCOME>
	<OUTCOME>2</OUTCOME>
</VARIABLE>

<VARIABLE TYPE="nature">
	<NAME>Plano cartesiano</NAME>
	<PROPERTY>Plano cartesiano</PROPERTY>
	<OUTCOME>0</OUTCOME>
	<OUTCOME>1</OUTCOME>
	<OUTCOME>2</OUTCOME>
</VARIABLE>

<VARIABLE TYPE="nature">
	<NAME>Desigualdades - inecuaciones</NAME>
	<PROPERTY>Desigualdades - inecuaciones</PROPERTY>
	<OUTCOME>0</OUTCOME>
	<OUTCOME>1</OUTCOME>
	<OUTCOME>2</OUTCOME>
</VARIABLE>

<VARIABLE TYPE="nature">
	<NAME>Derivada</NAME>
	<PROPERTY>Derivada</PROPERTY>
	<OUTCOME>0</OUTCOME>
	<OUTCOME>1</OUTCOME>
	<OUTCOME>2</OUTCOME>
</VARIABLE>

<VARIABLE TYPE="nature">
	<NAME>Definición de la integral</NAME>
	<PROPERTY>Definición de la integral</PROPERTY>
	<OUTCOME>0</OUTCOME>
	<OUTCOME>1</OUTCOME>
	<OUTCOME>2</OUTCOME>
</VARIABLE>

<VARIABLE TYPE="nature">
	<NAME>Conjuntos</NAME>
	<PROPERTY>Conjuntos</PROPERTY>
	<OUTCOME>0</OUTCOME>
	<OUTCOME>1</OUTCOME>
	<OUTCOME>2</OUTCOME>
</VARIABLE>

<VARIABLE TYPE="nature">
	<NAME>Triángulos rectángulos</NAME>
	<PROPERTY>Triángulos rectángulos</PROPERTY>
	<OUTCOME>0</OUTCOME>
	<OUTCOME>1</OUTCOME>
	<OUTCOME>2</OUTCOME>
</VARIABLE>

<VARIABLE TYPE="nature">
	<NAME>Principios de la Geometría</NAME>
	<PROPERTY>Principios de la Geometría</PROPERTY>
	<OUTCOME>0</OUTCOME>
	<OUTCOME>1</OUTCOME>
	<OUTCOME>2</OUTCOME>
</VARIABLE>

<VARIABLE TYPE="nature">
	<NAME>Expresiones algebraicas</NAME>
	<PROPERTY>Expresiones algebraicas</PROPERTY>
	<OUTCOME>0</OUTCOME>
	<OUTCOME>1</OUTCOME>
	<OUTCOME>2</OUTCOME>
</VARIABLE>

<VARIABLE TYPE="nature">
	<NAME>Operaciones Aritméticas</NAME>
	<PROPERTY>Operaciones Aritméticas</PROPERTY>
	<OUTCOME>0</OUTCOME>
	<OUTCOME>1</OUTCOME>
	<OUTCOME>2</OUTCOME>
</VARIABLE>

<VARIABLE TYPE="nature">
	<NAME>Tríangulos  oblicuángulos</NAME>
	<PROPERTY>Tríangulos  oblicuángulos</PROPERTY>
	<OUTCOME>0</OUTCOME>
	<OUTCOME>1</OUTCOME>
	<OUTCOME>2</OUTCOME>
</VARIABLE>

<VARIABLE TYPE="nature">
	<NAME>Fórmula general  para ecuaciones  de segundo grado</NAME>
	<PROPERTY>Fórmula general  para ecuaciones  de segundo grado</PROPERTY>
	<OUTCOME>0</OUTCOME>
	<OUTCOME>1</OUTCOME>
	<OUTCOME>2</OUTCOME>
</VARIABLE>

<VARIABLE TYPE="nature">
	<NAME>Sistema de n ecuaciones lineales con n incógnitas</NAME>
	<PROPERTY>Sistema de n ecuaciones lineales con n incógnitas</PROPERTY>
	<OUTCOME>0</OUTCOME>
	<OUTCOME>1</OUTCOME>
	<OUTCOME>2</OUTCOME>
</VARIABLE>

<VARIABLE TYPE="nature">
	<NAME>Intervalos</NAME>
	<PROPERTY>Intervalos</PROPERTY>
	<OUTCOME>0</OUTCOME>
	<OUTCOME>1</OUTCOME>
	<OUTCOME>2</OUTCOME>
</VARIABLE>

<VARIABLE TYPE="nature">
	<NAME>Límites y continuidad</NAME>
	<PROPERTY>Límites y continuidad</PROPERTY>
	<OUTCOME>0</OUTCOME>
	<OUTCOME>1</OUTCOME>
	<OUTCOME>2</OUTCOME>
</VARIABLE>

<VARIABLE TYPE="nature">
	<NAME>Antiderivadas</NAME>
	<PROPERTY>Antiderivadas</PROPERTY>
	<OUTCOME>0</OUTCOME>
	<OUTCOME>1</OUTCOME>
	<OUTCOME>2</OUTCOME>
</VARIABLE>

<VARIABLE TYPE="nature">
	<NAME>Aritmetica</NAME>
	<PROPERTY>Aritmetica</PROPERTY>
	<OUTCOME>0</OUTCOME>
	<OUTCOME>1</OUTCOME>
	<OUTCOME>2</OUTCOME>
</VARIABLE>

<VARIABLE TYPE="nature">
	<NAME>Álgebra  lineal</NAME>
	<PROPERTY>Álgebra  lineal</PROPERTY>
	<OUTCOME>0</OUTCOME>
	<OUTCOME>1</OUTCOME>
	<OUTCOME>2</OUTCOME>
</VARIABLE>

<VARIABLE TYPE="nature">
	<NAME>Álgebra</NAME>
	<PROPERTY>Álgebra</PROPERTY>
	<OUTCOME>0</OUTCOME>
	<OUTCOME>1</OUTCOME>
	<OUTCOME>2</OUTCOME>
</VARIABLE>

<VARIABLE TYPE="nature">
	<NAME>Trigonometría</NAME>
	<PROPERTY>Trigonometría</PROPERTY>
	<OUTCOME>0</OUTCOME>
	<OUTCOME>1</OUTCOME>
	<OUTCOME>2</OUTCOME>
</VARIABLE>

<VARIABLE TYPE="nature">
	<NAME>Geometría</NAME>
	<PROPERTY>Geometría</PROPERTY>
	<OUTCOME>0</OUTCOME>
	<OUTCOME>1</OUTCOME>
	<OUTCOME>2</OUTCOME>
</VARIABLE>

<VARIABLE TYPE="nature">
	<NAME>Funciones  matemáticas</NAME>
	<PROPERTY>Funciones  matemáticas</PROPERTY>
	<OUTCOME>0</OUTCOME>
	<OUTCOME>1</OUTCOME>
	<OUTCOME>2</OUTCOME>
</VARIABLE>

<VARIABLE TYPE="nature">
	<NAME>Cálculo  Diferencial</NAME>
	<PROPERTY>Cálculo  Diferencial</PROPERTY>
	<OUTCOME>0</OUTCOME>
	<OUTCOME>1</OUTCOME>
	<OUTCOME>2</OUTCOME>
</VARIABLE>

<VARIABLE TYPE="nature">
	<NAME>Cálculo  Integral</NAME>
	<PROPERTY>Cálculo  Integral</PROPERTY>
	<OUTCOME>0</OUTCOME>
	<OUTCOME>1</OUTCOME>
	<OUTCOME>2</OUTCOME>
</VARIABLE>

<VARIABLE TYPE="nature">
	<NAME>Matematicas</NAME>
	<PROPERTY>Matematicas</PROPERTY>
	<OUTCOME>0</OUTCOME>
	<OUTCOME>1</OUTCOME>
	<OUTCOME>2</OUTCOME>
</VARIABLE>

<!-- Probability distributions -->
<DEFINITION>
	<FOR>Porcentajes</FOR>
	<GIVEN>Regla  detres</GIVEN>
	<GIVEN>Razón y proporciones</GIVEN>
	<TABLE>
		0.264578 0.391645 0.343777
		0.247969 0.379838 0.372193
		0.264372 0.360308 0.37532
		0.26255 0.380403 0.357047
		0.259982 0.385858 0.35416
		0.267691 0.365456 0.366853
		0.264079 0.380028 0.355893
		0.263436 0.377666 0.358898
		0.265078 0.378208 0.356715
	</TABLE>
</DEFINITION>
<DEFINITION>
	<FOR>Teorema de Thales de Mileto</FOR>
	<GIVEN>Semezanjas de triangulos</GIVEN>
	<TABLE>
		0.191008 0.382218 0.426773
		0.184113 0.389412 0.426475
		0.188648 0.38902 0.422332
	</TABLE>
</DEFINITION>
<DEFINITION>
	<FOR>Teorema de Pitágoras</FOR>
	<GIVEN>Semezanjas de triangulos</GIVEN>
	<TABLE>
		0.229035 0.317472 0.453493
		0.233697 0.315536 0.450766
		0.23323 0.321527 0.445243
	</TABLE>
</DEFINITION>
<DEFINITION>
	<FOR>Teorema de Euclides</FOR>
	<GIVEN>Semezanjas de triangulos</GIVEN>
	<TABLE>
		0.335644 0.318212 0.346143
		0.329711 0.324902 0.345387
		0.324211 0.32161 0.35418
	</TABLE>
</DEFINITION>
<DEFINITION>
	<FOR>Notación científica</FOR>
	<GIVEN>Ley de exponentes</GIVEN>
	<GIVEN>Exponentes de números enteros elevados a números enteros</GIVEN>
	<TABLE>
		0.306806 0.286649 0.406545
		0.310567 0.272332 0.417101
		0.31768 0.285327 0.396993
		0.305155 0.27066 0.424185
		0.296268 0.286875 0.416857
		0.311073 0.285326 0.403601
		0.325503 0.278188 0.396309
		0.299456 0.28988 0.410664
		0.309862 0.278047 0.412091
	</TABLE>
</DEFINITION>
<DEFINITION>
	<FOR>Radicales</FOR>
	<GIVEN>División de  números  racionales</GIVEN>
	<GIVEN>Multiplicación de  números  racionales</GIVEN>
	<GIVEN>Resta de  números  racionales</GIVEN>
	<TABLE>
		0.373541 0.357977 0.268482
		0.373089 0.333333 0.293578
		0.352572 0.350063 0.297365
		0.383648 0.350943 0.265409
		0.354839 0.356855 0.288306
		0.361138 0.350343 0.288518
		0.372818 0.346454 0.280728
		0.377332 0.338327 0.284341
		0.379608 0.334118 0.286275
		0.386885 0.344262 0.268852
		0.38 0.332 0.288
		0.382048 0.341772 0.27618
		0.367028 0.33935 0.293622
		0.388596 0.324561 0.286842
		0.383573 0.333333 0.283094
		0.390283 0.336551 0.273166
		0.380327 0.350347 0.269326
		0.386224 0.337577 0.276199
		0.416318 0.296025 0.287657
		0.379696 0.331735 0.288569
		0.385471 0.335804 0.278725
		0.377536 0.344928 0.277536
		0.398459 0.347276 0.254265
		0.388422 0.338446 0.273132
		0.378236 0.340413 0.281351
		0.381426 0.345777 0.272797
		0.381007 0.331229 0.287764
	</TABLE>
</DEFINITION>
<DEFINITION>
	<FOR>Regla  detres</FOR>
	<GIVEN>Razón y proporciones</GIVEN>
	<GIVEN>División de  números  racionales</GIVEN>
	<GIVEN>Multiplicación de  números  racionales</GIVEN>
	<TABLE>
		0.123077 0.2 0.676923
		0.118866 0.193021 0.688113
		0.108397 0.194809 0.696794
		0.122535 0.153521 0.723944
		0.124016 0.19685 0.679134
		0.115673 0.190808 0.693519
		0.115066 0.17053 0.714404
		0.119956 0.185738 0.694306
		0.120543 0.194635 0.684822
		0.109244 0.205042 0.685714
		0.132603 0.175182 0.692214
		0.112156 0.201672 0.686172
		0.159292 0.182891 0.657817
		0.131324 0.181916 0.68676
		0.121087 0.183993 0.69492
		0.115308 0.181909 0.702783
		0.123912 0.196919 0.679169
		0.123401 0.1962 0.680399
		0.122222 0.190278 0.6875
		0.11059 0.187441 0.701968
		0.122762 0.19335 0.683887
		0.123662 0.186683 0.689655
		0.119531 0.197656 0.682813
		0.118814 0.186741 0.694444
		0.137854 0.19076 0.671386
		0.11691 0.193633 0.689457
		0.123914 0.194559 0.681527
	</TABLE>
</DEFINITION>
<DEFINITION>
	<FOR>Solución de problemas reales con ecuaciones de segundo grado</FOR>
	<GIVEN>Ecuaciones de segundo grado</GIVEN>
	<TABLE>
		0.416531 0.303213 0.280256
		0.419237 0.306591 0.274173
		0.42185 0.300859 0.277291
	</TABLE>
</DEFINITION>
<DEFINITION>
	<FOR>Semezanjas de triangulos</FOR>
	<GIVEN>Congruencia de trángulos</GIVEN>
	<TABLE>
		0.254057 0.335518 0.410424
		0.250441 0.341781 0.407779
		0.250914 0.337139 0.411947
	</TABLE>
</DEFINITION>
<DEFINITION>
	<FOR>Ley de exponentes</FOR>
	<GIVEN>División de  números  racionales</GIVEN>
	<GIVEN>Multiplicación de  números  racionales</GIVEN>
	<GIVEN>Resta de  números  racionales</GIVEN>
	<GIVEN>Suma de números racionales</GIVEN>
	<TABLE>
		0.40678 0.322034 0.271186
		0.377246 0.293413 0.329341
		0.417647 0.323529 0.258824
		0.395833 0.295833 0.308333
		0.422886 0.318408 0.258706
		0.42723 0.215962 0.356808
		0.364548 0.29097 0.344482
		0.394422 0.278884 0.326693
		0.376518 0.283401 0.340081
		0.381443 0.302405 0.316151
		0.329412 0.278431 0.392157
		0.413655 0.261044 0.325301
		0.462644 0.227011 0.310345
		0.44164 0.274448 0.283912
		0.397554 0.269113 0.333333
		0.395604 0.266484 0.337912
		0.366883 0.285714 0.347403
		0.458213 0.25072 0.291066
		0.41412 0.266596 0.319283
		0.396973 0.285215 0.317811
		0.40678 0.270056 0.323164
		0.404094 0.254738 0.341168
		0.410922 0.273948 0.31513
		0.389292 0.295826 0.314882
		0.390558 0.294707 0.314735
		0.369755 0.307997 0.322249
		0.371134 0.287801 0.341065
		0.385281 0.30303 0.311688
		0.411168 0.269036 0.319797
		0.362637 0.258242 0.379121
		0.422794 0.253676 0.323529
		0.480851 0.251064 0.268085
		0.358025 0.292181 0.349794
		0.400631 0.264984 0.334385
		0.352941 0.297794 0.349265
		0.414286 0.264286 0.321429
		0.376238 0.313531 0.310231
		0.388889 0.246032 0.365079
		0.394928 0.297101 0.307971
		0.417607 0.266366 0.316027
		0.373563 0.301724 0.324713
		0.438395 0.226361 0.335244
		0.412027 0.260579 0.327394
		0.356771 0.276042 0.367188
		0.432304 0.285036 0.28266
		0.404783 0.268379 0.326838
		0.394004 0.277302 0.328694
		0.419139 0.265072 0.315789
		0.401639 0.279372 0.318989
		0.416928 0.262539 0.320533
		0.375772 0.299383 0.324846
		0.371704 0.303537 0.324759
		0.38885 0.302752 0.308398
		0.389629 0.288017 0.322355
		0.432602 0.260188 0.30721
		0.404605 0.263158 0.332237
		0.363363 0.276276 0.36036
		0.391685 0.306346 0.301969
		0.422785 0.260759 0.316456
		0.378446 0.278195 0.343358
		0.396588 0.302772 0.30064
		0.407059 0.272941 0.32
		0.448352 0.23956 0.312088
		0.41635 0.243346 0.340304
		0.359091 0.320455 0.320455
		0.449275 0.26087 0.289855
		0.386197 0.302496 0.311307
		0.430556 0.267361 0.302083
		0.4 0.294643 0.305357
		0.40225 0.28692 0.31083
		0.441896 0.250765 0.307339
		0.385671 0.297256 0.317073
		0.414954 0.285388 0.299658
		0.39386 0.270411 0.335728
		0.397351 0.28236 0.320289
		0.390408 0.281027 0.328565
		0.416828 0.273694 0.309478
		0.386418 0.277857 0.335725
		0.397488 0.280794 0.321718
		0.410075 0.280601 0.309324
		0.411161 0.275893 0.312946
	</TABLE>
</DEFINITION>
<DEFINITION>
	<FOR>División de  números  racionales</FOR>
	<GIVEN>Multiplicación de  números  racionales</GIVEN>
	<GIVEN>Resta de  números  racionales</GIVEN>
	<GIVEN>Suma de números racionales</GIVEN>
	<TABLE>
		0.243466 0.317744 0.43879
		0.25 0.29491 0.45509
		0.248175 0.265693 0.486131
		0.247678 0.280702 0.47162
		0.241877 0.282792 0.475331
		0.249123 0.284211 0.466667
		0.275576 0.292166 0.432258
		0.264768 0.28692 0.448312
		0.251527 0.285132 0.46334
		0.259821 0.270536 0.469643
		0.269271 0.266103 0.464625
		0.265176 0.29393 0.440895
		0.236413 0.300951 0.462636
		0.255439 0.280419 0.464142
		0.264563 0.282362 0.453074
		0.238845 0.294619 0.466535
		0.228826 0.28529 0.485884
		0.24368 0.295646 0.460674
		0.247781 0.294778 0.457441
		0.258424 0.280987 0.46059
		0.246449 0.291005 0.462545
		0.25562 0.283721 0.460659
		0.250392 0.286035 0.463573
		0.245489 0.288706 0.465805
		0.257886 0.286847 0.455267
		0.255513 0.286668 0.457819
		0.240944 0.295384 0.463672
	</TABLE>
</DEFINITION>
<DEFINITION>
	<FOR>Resta de  números  racionales</FOR>
	<GIVEN>Suma de números racionales</GIVEN>
	<TABLE>
		0.266426 0.35672 0.376854
		0.263991 0.34919 0.386819
		0.274012 0.345734 0.380254
	</TABLE>
</DEFINITION>
<DEFINITION>
	<FOR>Ecuaciones de segundo grado</FOR>
	<GIVEN>Factorización</GIVEN>
	<GIVEN>Productos notables</GIVEN>
	<TABLE>
		0.321894 0.29888 0.379227
		0.324086 0.310845 0.365069
		0.324551 0.299816 0.375633
		0.327173 0.290004 0.382822
		0.325888 0.300508 0.373604
		0.324438 0.290339 0.385224
		0.320576 0.300653 0.378771
		0.322586 0.292117 0.385297
		0.321259 0.311532 0.367208
	</TABLE>
</DEFINITION>
<DEFINITION>
	<FOR>Congruencia de trángulos</FOR>
	<GIVEN>Perímetros áreas y volúmenes</GIVEN>
	<TABLE>
		0.267063 0.312376 0.420561
		0.273636 0.305424 0.42094
		0.271378 0.306858 0.421764
	</TABLE>
</DEFINITION>
<DEFINITION>
	<FOR>Relación métrica de la circunferencia</FOR>
	<GIVEN>Perímetros áreas y volúmenes</GIVEN>
	<TABLE>
		0.266308 0.280846 0.452846
		0.273416 0.281981 0.444603
		0.267178 0.279247 0.453574
	</TABLE>
</DEFINITION>
<DEFINITION>
	<FOR>Solución de problemas reales con álgebra lineal</FOR>
	<GIVEN>Solución de  sistemas de  ecuaciones  por matrices</GIVEN>
	<TABLE>
		0.495981 0.245724 0.258295
		0.497538 0.249971 0.252491
		0.499781 0.25431 0.245909
	</TABLE>
</DEFINITION>
<DEFINITION>
	<FOR>Solución de problemas reales con trigonometría</FOR>
	<GIVEN>Solución de trángulos rectángulos</GIVEN>
	<TABLE>
		0.30089 0.345973 0.353137
		0.312634 0.33833 0.349036
		0.313522 0.336761 0.349718
	</TABLE>
</DEFINITION>
<DEFINITION>
	<FOR>Modelado de funciones</FOR>
	<GIVEN>Funciones Trigonométricas</GIVEN>
	<GIVEN>Función  Valor absoluto</GIVEN>
	<GIVEN>Funciones  Logarítmicas</GIVEN>
	<GIVEN>Función  Exponencial</GIVEN>
	<GIVEN>Función Polinomial</GIVEN>
	<GIVEN>Función Cuadrática</GIVEN>
	<GIVEN>Función  Lineal</GIVEN>
	<TABLE>
		1 0 0
		0 0.333333 0.666667
		0.2 0.2 0.6
		0.333333 0.333333 0.333333
		0.6 0 0.4
		0.25 0.375 0.375
		0.666667 0.333333 0
		0.444444 0.222222 0.333333
		0.428571 0.142857 0.428571
		0.25 0.25 0.5
		0.4 0.6 0
		0.466667 0.266667 0.266667
		0.5 0.333333 0.166667
		0.272727 0.363636 0.363636
		0.3125 0.375 0.3125
		0.714286 0 0.285714
		0.272727 0.454545 0.272727
		0.555556 0.111111 0.333333
		0.666667 0.166667 0.166667
		0.333333 0.333333 0.333333
		0.466667 0.2 0.333333
		0.384615 0.230769 0.384615
		0.636364 0.181818 0.181818
		0.153846 0.384615 0.461538
		0.2 0.1 0.7
		0.333333 0.444444 0.222222
		0.37931 0.241379 0.37931
		0 0.5 0.5
		0.571429 0.142857 0.285714
		0.636364 0.181818 0.181818
		0 0.4 0.6
		0.5 0.142857 0.357143
		0.380952 0.190476 0.428571
		0 0.6 0.4
		0.368421 0.421053 0.210526
		0.322581 0.193548 0.483871
		0.4 0 0.6
		0.5 0.2 0.3
		0.521739 0.304348 0.173913
		0.4 0.3 0.3
		0.424242 0.363636 0.212121
		0.535714 0.321429 0.142857
		0.5 0.2 0.3
		0.529412 0.117647 0.352941
		0.306452 0.387097 0.306452
		1 0 0
		0.466667 0.2 0.333333
		0.423077 0.269231 0.307692
		0.5 0.125 0.375
		0.4 0.35 0.25
		0.409091 0.318182 0.272727
		0.434783 0.304348 0.26087
		0.314286 0.371429 0.314286
		0.34 0.36 0.3
		0.666667 0.333333 0
		0.333333 0.333333 0.333333
		0.428571 0 0.571429
		0 0.75 0.25
		0.333333 0.333333 0.333333
		0.26087 0.434783 0.304348
		0.833333 0 0.166667
		0.461538 0.230769 0.307692
		0.55 0.3 0.15
		0.142857 0.428571 0.428571
		0.4 0.2 0.4
		0.384615 0.307692 0.307692
		0.6 0.2 0.2
		0.555556 0.166667 0.277778
		0.428571 0.178571 0.392857
		0.318182 0.363636 0.318182
		0.53125 0.28125 0.1875
		0.4 0.285714 0.314286
		0 0.5 0.5
		0.25 0.375 0.375
		0.5 0.142857 0.357143
		0.142857 0.428571 0.428571
		0.428571 0.285714 0.285714
		0.470588 0.176471 0.352941
		0.357143 0.428571 0.214286
		0.466667 0.3 0.233333
		0.484848 0.242424 0.272727
		0.25 0.25 0.5
		0.333333 0 0.666667
		0.571429 0.285714 0.142857
		0 0 1
		0.6 0.2 0.2
		0.3 0.5 0.2
		0.6 0.4 0
		0.6 0 0.4
		0.411765 0.235294 0.352941
		0.5 0.5 0
		0.5 0.3 0.2
		0.533333 0.133333 0.333333
		0.4 0.2 0.4
		0.230769 0.538462 0.230769
		0.529412 0.235294 0.235294
		0.333333 0.416667 0.25
		0.473684 0.0526316 0.473684
		0.435897 0.333333 0.230769
		0.5 0 0.5
		0.2 0.6 0.2
		0.411765 0.176471 0.411765
		0.625 0.375 0
		0.315789 0.263158 0.421053
		0.290323 0.419355 0.290323
		0.461538 0.0769231 0.461538
		0.318182 0.181818 0.5
		0.407407 0.333333 0.259259
		0.571429 0.285714 0.142857
		0.555556 0.111111 0.333333
		0.411765 0.117647 0.470588
		0.222222 0.444444 0.333333
		0.368421 0.263158 0.368421
		0.421053 0.157895 0.421053
		0.375 0.125 0.5
		0.352941 0.235294 0.411765
		0.25 0.25 0.5
		0.2 0.3 0.5
		0.25 0.5 0.25
		0.478261 0.173913 0.347826
		0.384615 0.230769 0.384615
		0.533333 0.2 0.266667
		0.292683 0.365854 0.341463
		0.346154 0.307692 0.346154
		0.309524 0.309524 0.380952
		0.328125 0.296875 0.375
		0.384615 0.461538 0.153846
		0.266667 0.333333 0.4
		0.4375 0.25 0.3125
		0.352941 0.352941 0.294118
		0.451613 0.290323 0.258065
		0.410714 0.303571 0.285714
		0.315789 0.315789 0.368421
		0.485714 0.285714 0.228571
		0.472222 0.277778 0.25
		0.25 0.5 0.25
		0.6 0.2 0.2
		0.285714 0.357143 0.357143
		0.428571 0.142857 0.428571
		0.375 0.375 0.25
		0.5 0.166667 0.333333
		0.3 0.4 0.3
		0.647059 0.176471 0.176471
		0.375 0.291667 0.333333
		0.428571 0.285714 0.285714
		0.2 0.6 0.2
		0.388889 0.388889 0.222222
		0.666667 0.0833333 0.25
		0.583333 0.166667 0.25
		0.520833 0.208333 0.270833
		0.285714 0.380952 0.333333
		0.5 0.333333 0.166667
		0.392157 0.294118 0.313725
		0.181818 0.363636 0.454545
		0.272727 0.363636 0.363636
		0.416667 0.25 0.333333
		0.333333 0.444444 0.222222
		0.333333 0.208333 0.458333
		0.263158 0.315789 0.421053
		0.588235 0.117647 0.294118
		0.454545 0.318182 0.227273
		0.416667 0.233333 0.35
		0.8 0.2 0
		0.5 0 0.5
		0.4 0.4 0.2
		0.666667 0.333333 0
		0.333333 0.333333 0.333333
		0.444444 0.333333 0.222222
		0.5 0 0.5
		0.8 0 0.2
		0.444444 0.333333 0.222222
		0.75 0.25 0
		0 0.5 0.5
		0.1 0.2 0.7
		0.571429 0.285714 0.142857
		0.625 0.25 0.125
		0.458333 0.291667 0.25
		0.7 0.1 0.2
		0.384615 0.384615 0.230769
		0.473684 0.210526 0.315789
		0.2 0.4 0.4
		0 1 0
		0.272727 0.454545 0.272727
		0.111111 0.444444 0.444444
		0.214286 0.5 0.285714
		0.333333 0.222222 0.444444
		0.142857 0.571429 0.285714
		0.3 0.3 0.4
		0.285714 0.371429 0.342857
		0.375 0.375 0.25
		0.8 0 0.2
		0.428571 0.214286 0.357143
		0.5 0.25 0.25
		0.421053 0.157895 0.421053
		0.666667 0.25 0.0833333
		0.416667 0.333333 0.25
		0.130435 0.347826 0.521739
		0.4 0.4 0.2
		0.25 0.375 0.375
		0.235294 0.352941 0.411765
		0.5 0.227273 0.272727
		0.4 0.333333 0.266667
		0.423077 0.269231 0.307692
		0.441176 0.205882 0.352941
		0.375 0.5625 0.0625
		0.4 0.433333 0.166667
		0.387755 0.367347 0.244898
		0.75 0 0.25
		0.411765 0.176471 0.411765
		0.4375 0.3125 0.25
		0.473684 0.263158 0.263158
		0.208333 0.333333 0.458333
		0.340909 0.295455 0.363636
		0.45 0 0.55
		0.5 0.269231 0.230769
		0.44186 0.302326 0.255814
		0.5 0 0.5
		0.75 0.25 0
		0.5 0 0.5
		0.5 0.5 0
		0.375 0.25 0.375
		0.416667 0.333333 0.25
		0.2 0.2 0.6
		0.285714 0.285714 0.428571
		0.5 0.208333 0.291667
		0.2 0.6 0.2
		0.555556 0.222222 0.222222
		0.263158 0.526316 0.210526
		0.5 0.5 0
		0.4 0.24 0.36
		0.24 0.16 0.6
		0.444444 0.277778 0.277778
		0.423077 0.307692 0.269231
		0.410256 0.333333 0.25641
		0.75 0 0.25
		0.428571 0.142857 0.428571
		0.3 0.35 0.35
		0.307692 0.153846 0.538462
		0.421053 0.368421 0.210526
		0.434783 0.130435 0.434783
		0.47619 0.380952 0.142857
		0.352941 0.235294 0.411765
		0.483871 0.225806 0.290323
		0 0 1
		0.333333 0.333333 0.333333
		0.5 0.5 0
		0.75 0 0.25
		0.333333 0.333333 0.333333
		0.384615 0.384615 0.230769
		0 0.166667 0.833333
		0.166667 0.333333 0.5
		0.333333 0.333333 0.333333
		0 0.5 0.5
		0.333333 0.166667 0.5
		0.625 0.125 0.25
		0.272727 0.454545 0.272727
		0.555556 0.111111 0.333333
		0.444444 0.277778 0.277778
		0.3 0.4 0.3
		0.428571 0.285714 0.285714
		0.428571 0.342857 0.228571
		0 0 1
		0.25 0.25 0.5
		0.352941 0.294118 0.352941
		0.333333 0.166667 0.5
		0.375 0.5 0.125
		0.45 0.2 0.35
		0.142857 0.428571 0.428571
		0.380952 0.428571 0.190476
		0.181818 0.409091 0.409091
		0.333333 0 0.666667
		0.2 0.6 0.2
		0.555556 0.222222 0.222222
		0.555556 0.333333 0.111111
		0.5 0.25 0.25
		0.454545 0.272727 0.272727
		0.181818 0.181818 0.636364
		0.470588 0.235294 0.294118
		0.4 0.166667 0.433333
		0.666667 0.333333 0
		0.333333 0.333333 0.333333
		0.52381 0.190476 0.285714
		0.538462 0.0769231 0.384615
		0.36 0.32 0.32
		0.5 0.25 0.25
		0.263158 0.473684 0.263158
		0.358974 0.25641 0.384615
		0.507692 0.246154 0.246154
		0.666667 0.166667 0.166667
		0.466667 0.4 0.133333
		0.5 0.25 0.25
		0.222222 0.388889 0.388889
		0.391304 0.347826 0.26087
		0.44 0.24 0.32
		0.48 0.32 0.2
		0.428571 0.321429 0.25
		0.403226 0.354839 0.241935
		0 0.333333 0.666667
		0.333333 0.666667 0
		0.4375 0.3125 0.25
		0.142857 0.285714 0.571429
		0.375 0.375 0.25
		0.214286 0.285714 0.5
		0.666667 0.333333 0
		0.428571 0.285714 0.285714
		0.190476 0.238095 0.571429
		0.428571 0.285714 0.285714
		0.333333 0.333333 0.333333
		0.333333 0.266667 0.4
		0.714286 0.0714286 0.214286
		0.428571 0.333333 0.238095
		0.37037 0.333333 0.296296
		0.434783 0.217391 0.347826
		0.333333 0.533333 0.133333
		0.291667 0.354167 0.354167
		0.142857 0.428571 0.428571
		0.428571 0.428571 0.142857
		0.235294 0.176471 0.588235
		0.416667 0.333333 0.25
		0.55 0.25 0.2
		0.4 0.32 0.28
		0.0625 0.375 0.5625
		0.515152 0.212121 0.272727
		0.509804 0.27451 0.215686
		0 0 1
		0.2 0.2 0.6
		0.375 0.25 0.375
		0.5 0 0.5
		0.333333 0.333333 0.333333
		0.266667 0.266667 0.466667
		0.666667 0.222222 0.111111
		0.375 0.25 0.375
		0.352941 0.235294 0.411765
		0.333333 0.666667 0
		0.714286 0.285714 0
		0.307692 0.461538 0.230769
		0.666667 0.166667 0.166667
		0.25 0.333333 0.416667
		0.47619 0.238095 0.285714
		0.4 0.4 0.2
		0.32 0.2 0.48
		0.4 0.4 0.2
		0.444444 0.444444 0.111111
		0.416667 0.333333 0.25
		0.461538 0.230769 0.307692
		0.2 0.5 0.3
		0.5 0.214286 0.285714
		0.346154 0.307692 0.346154
		0.142857 0.285714 0.571429
		0.310345 0.241379 0.448276
		0.416667 0.166667 0.416667
		0.6 0.2 0.2
		0.25 0.5 0.25
		0.470588 0.176471 0.352941
		0.5 0.375 0.125
		0.666667 0.277778 0.0555556
		0.512195 0.146341 0.341463
		0.714286 0.214286 0.0714286
		0.333333 0.366667 0.3
		0.347826 0.347826 0.304348
		0.384615 0.384615 0.230769
		0.5 0.142857 0.357143
		0.405405 0.216216 0.378378
		0.481481 0.222222 0.296296
		0.344828 0.275862 0.37931
		0.395833 0.3125 0.291667
		0.538462 0.115385 0.346154
		0.512195 0.243902 0.243902
		0.380952 0.253968 0.365079
		0.0909091 0.545455 0.363636
		0.5625 0.3125 0.125
		0.636364 0.136364 0.227273
		0.3125 0.3125 0.375
		0.333333 0.333333 0.333333
		0.372881 0.288136 0.338983
		0.424242 0.333333 0.242424
		0.275 0.175 0.55
		0.44 0.293333 0.266667
		0 0 0
		0.285714 0.428571 0.285714
		0.375 0.125 0.5
		0.375 0 0.625
		0.428571 0.285714 0.285714
		0.25 0.4 0.35
		0.111111 0.333333 0.555556
		0.466667 0.333333 0.2
		0.375 0.416667 0.208333
		0.555556 0.222222 0.222222
		0.461538 0.230769 0.307692
		0.444444 0.166667 0.388889
		0.692308 0.153846 0.153846
		0.4 0.333333 0.266667
		0.527778 0.194444 0.277778
		0.434783 0.26087 0.304348
		0.375 0.25 0.375
		0.367647 0.338235 0.294118
		0.375 0.125 0.5
		0.533333 0.133333 0.333333
		0.294118 0.294118 0.411765
		0.4 0.25 0.35
		0.259259 0.296296 0.444444
		0.510204 0.183673 0.306122
		0.391304 0.26087 0.347826
		0.424242 0.333333 0.242424
		0.365079 0.285714 0.349206
		1 0 0
		0 0.666667 0.333333
		0.2 0.2 0.6
		0 1 0
		0.5 0.333333 0.166667
		0.333333 0.25 0.416667
		0.6 0.4 0
		0.4 0.3 0.3
		0.333333 0.2 0.466667
		0.5 0.5 0
		0.125 0.5 0.375
		0.5 0.214286 0.285714
		0.166667 0.833333 0
		0.222222 0.333333 0.444444
		0.347826 0.347826 0.304348
		0.25 0.5 0.25
		0.444444 0.222222 0.333333
		0.375 0.333333 0.291667
		0.25 0.5 0.25
		0.5 0.25 0.25
		0.555556 0.111111 0.333333
		0.625 0.375 0
		0.285714 0.285714 0.428571
		0.275862 0.241379 0.482759
		0.5 0.25 0.25
		0.5 0.214286 0.285714
		0.344828 0.413793 0.241379
		0.333333 0 0.666667
		0.333333 0.666667 0
		0.428571 0.428571 0.142857
		0.454545 0.545455 0
		0.380952 0.380952 0.238095
		0.384615 0.307692 0.307692
		0.5 0.4 0.1
		0.285714 0.333333 0.380952
		0.4 0.15 0.45
		0.75 0.125 0.125
		0.214286 0.5 0.285714
		0.478261 0.347826 0.173913
		0.6 0.2 0.2
		0.473684 0.210526 0.315789
		0.466667 0.311111 0.222222
		0.238095 0.333333 0.428571
		0.413793 0.310345 0.275862
		0.45098 0.254902 0.294118
		0.555556 0.111111 0.333333
		0.277778 0.333333 0.388889
		0.318182 0.409091 0.272727
		0.368421 0.315789 0.315789
		0.366667 0.433333 0.2
		0.305556 0.388889 0.305556
		0.47619 0.238095 0.285714
		0.435897 0.307692 0.25641
		0.47619 0.190476 0.333333
		0 0 0
		0.4 0.4 0.2
		0.25 0.166667 0.583333
		0.285714 0.571429 0.142857
		0.222222 0.444444 0.333333
		0.461538 0.230769 0.307692
		0.25 0.25 0.5
		0.75 0 0.25
		0.473684 0.315789 0.210526
		0.25 0.5 0.25
		0.444444 0.444444 0.111111
		0.235294 0.411765 0.352941
		0.2 0.5 0.3
		0.473684 0.263158 0.263158
		0.352941 0.294118 0.352941
		0.833333 0 0.166667
		0.296296 0.259259 0.444444
		0.408163 0.285714 0.306122
		0.4 0.3 0.3
		0.333333 0.266667 0.4
		0.315789 0.526316 0.157895
		0.375 0.375 0.25
		0.576923 0.153846 0.269231
		0.5 0.25 0.25
		0.333333 0.4 0.266667
		0.44 0.28 0.28
		0.553571 0.232143 0.214286
		0.333333 0.166667 0.5
		0.625 0.125 0.25
		0.272727 0.454545 0.272727
		0.142857 0.285714 0.571429
		0.526316 0.263158 0.210526
		0.391304 0.521739 0.0869565
		0.285714 0.428571 0.285714
		0.428571 0.238095 0.333333
		0.315789 0.526316 0.157895
		0.416667 0.25 0.333333
		0.307692 0.307692 0.384615
		0.25 0.333333 0.416667
		0.333333 0.166667 0.5
		0.416667 0.375 0.208333
		0.473684 0.263158 0.263158
		0.4 0.35 0.25
		0.407407 0.185185 0.407407
		0.468085 0.212766 0.319149
		0 0.4 0.6
		0.4 0.4 0.2
		0.25 0.45 0.3
		0.692308 0.153846 0.153846
		0.375 0.3125 0.3125
		0.272727 0.484848 0.242424
		0.157895 0.473684 0.368421
		0.588235 0.0882353 0.323529
		0.367347 0.346939 0.285714
		0.3 0.3 0.4
		0.3 0.6 0.1
		0.238095 0.333333 0.428571
		0.125 0.375 0.5
		0.65 0.15 0.2
		0.414634 0.292683 0.292683
		0.307692 0.230769 0.461538
		0.5 0.28125 0.21875
		0.5 0.361111 0.138889
		0.5 0.1 0.4
		0.444444 0.296296 0.259259
		0.439024 0.195122 0.365854
		0.416667 0.125 0.458333
		0.408163 0.367347 0.22449
		0.311688 0.311688 0.376623
		0.46875 0.1875 0.34375
		0.368421 0.302632 0.328947
		0.32381 0.27619 0.4
		0.666667 0.222222 0.111111
		0.44 0.4 0.16
		0.428571 0.257143 0.314286
		0.413793 0.275862 0.310345
		0.419355 0.274194 0.306452
		0.492063 0.238095 0.269841
		0.348837 0.418605 0.232558
		0.467532 0.285714 0.246753
		0.383333 0.258333 0.358333
		0 0.666667 0.333333
		0.166667 0.388889 0.444444
		0.235294 0.352941 0.411765
		0.5 0.285714 0.214286
		0.52381 0.142857 0.333333
		0.238095 0.238095 0.52381
		0.5 0.45 0.05
		0.545455 0.181818 0.272727
		0.387755 0.244898 0.367347
		0.2 0.2 0.6
		0.5 0.214286 0.285714
		0.333333 0.393939 0.272727
		0.444444 0.37037 0.185185
		0.45 0.175 0.375
		0.408451 0.323944 0.267606
		0.454545 0.363636 0.181818
		0.395833 0.291667 0.3125
		0.408602 0.311828 0.27957
		0.222222 0.777778 0
		0.36 0.24 0.4
		0.5 0.289474 0.210526
		0.333333 0.148148 0.518519
		0.575758 0.151515 0.272727
		0.428571 0.311688 0.25974
		0.5 0.294118 0.205882
		0.510204 0.326531 0.163265
		0.32 0.4 0.28
		0.25 0.5 0.25
		0.5 0.0833333 0.416667
		0.5 0.3 0.2
		0.461538 0.384615 0.153846
		0.181818 0.636364 0.181818
		0.36 0.36 0.28
		0.272727 0.363636 0.363636
		0.173913 0.478261 0.347826
		0.448276 0.310345 0.241379
		0.5 0.333333 0.166667
		0.578947 0.105263 0.315789
		0.212121 0.393939 0.393939
		0.571429 0.214286 0.214286
		0.352941 0.352941 0.294118
		0.333333 0.333333 0.333333
		0.413793 0.344828 0.241379
		0.489362 0.276596 0.234043
		0.445946 0.351351 0.202703
		0.125 0.25 0.625
		0.444444 0.222222 0.333333
		0.454545 0.363636 0.181818
		0.407407 0.37037 0.222222
		0.423077 0.230769 0.346154
		0.283019 0.339623 0.377358
		0.5 0.25 0.25
		0.288889 0.311111 0.4
		0.455882 0.220588 0.323529
		0.5 0.2 0.3
		0.470588 0.352941 0.176471
		0.380952 0.238095 0.380952
		0.111111 0.5 0.388889
		0.45 0.25 0.3
		0.388889 0.222222 0.388889
		0.291667 0.458333 0.25
		0.317073 0.365854 0.317073
		0.467532 0.324675 0.207792
		0.318182 0.590909 0.0909091
		0.423077 0.384615 0.192308
		0.445946 0.364865 0.189189
		0.461538 0.282051 0.25641
		0.292308 0.338462 0.369231
		0.383929 0.258929 0.357143
		0.394737 0.210526 0.394737
		0.375 0.225 0.4
		0.411765 0.286765 0.301471
		0.222222 0.333333 0.444444
		0.344828 0.275862 0.37931
		0.412698 0.269841 0.31746
		0.55 0.3 0.15
		0.389831 0.338983 0.271186
		0.474227 0.319588 0.206186
		0.484375 0.296875 0.21875
		0.333333 0.32 0.346667
		0.360294 0.279412 0.360294
		0.375 0.25 0.375
		0.125 0.5 0.375
		0.321429 0.285714 0.392857
		0.375 0.208333 0.416667
		0.173913 0.304348 0.521739
		0.38 0.3 0.32
		0.3 0.4 0.3
		0.444444 0.277778 0.277778
		0.418605 0.372093 0.209302
		0.625 0.125 0.25
		0.5 0.25 0.25
		0.4 0.24 0.36
		0.36 0.28 0.36
		0.545455 0.272727 0.181818
		0.358974 0.320513 0.320513
		0.452381 0.261905 0.285714
		0.413793 0.327586 0.258621
		0.389381 0.274336 0.336283
		0.666667 0.0666667 0.266667
		0.404762 0.357143 0.238095
		0.4 0.422222 0.177778
		0.419355 0.322581 0.258065
		0.27907 0.325581 0.395349
		0.493827 0.197531 0.308642
		0.375 0.4 0.225
		0.459459 0.256757 0.283784
		0.348315 0.314607 0.337079
		0.333333 0.333333 0.333333
		0.272727 0.545455 0.181818
		0.538462 0.307692 0.153846
		0.571429 0.285714 0.142857
		0.333333 0.333333 0.333333
		0.571429 0.142857 0.285714
		0.636364 0.181818 0.181818
		0.5 0.428571 0.0714286
		0.521739 0.217391 0.26087
		0.5 0.5 0
		0.545455 0.363636 0.0909091
		0.464286 0.214286 0.321429
		0.4 0.533333 0.0666667
		0.375 0.333333 0.291667
		0.421053 0.315789 0.263158
		0.35 0.3 0.35
		0.285714 0.428571 0.285714
		0.385965 0.333333 0.280702
		0.25 0.25 0.5
		0.5 0.3 0.2
		0.304348 0.347826 0.347826
		0.5625 0.4375 0
		0.444444 0.296296 0.259259
		0.571429 0.178571 0.25
		0.454545 0.363636 0.181818
		0.416667 0.305556 0.277778
		0.490196 0.27451 0.235294
		0.111111 0.222222 0.666667
		0.3 0.1 0.6
		0.444444 0.185185 0.37037
		0.294118 0.176471 0.529412
		0.375 0.25 0.375
		0.540541 0.297297 0.162162
		0.333333 0.222222 0.444444
		0.5 0.205882 0.294118
		0.339286 0.196429 0.464286
		0.647059 0.176471 0.176471
		0.424242 0.333333 0.242424
		0.560976 0.170732 0.268293
		0.310345 0.413793 0.275862
		0.380952 0.357143 0.261905
		0.478873 0.394366 0.126761
		0.357143 0.380952 0.261905
		0.396552 0.224138 0.37931
		0.342857 0.314286 0.342857
		0.333333 0.380952 0.285714
		0.461538 0.307692 0.230769
		0.42 0.38 0.2
		0.310345 0.206897 0.482759
		0.319149 0.382979 0.297872
		0.387755 0.244898 0.367347
		0.351351 0.324324 0.324324
		0.507692 0.292308 0.2
		0.37037 0.318519 0.311111
		0.25 0.333333 0.416667
		0.181818 0.545455 0.272727
		0.5 0.291667 0.208333
		0.222222 0.333333 0.444444
		0.352941 0.235294 0.411765
		0.321429 0.392857 0.285714
		0.142857 0.714286 0.142857
		0.538462 0.192308 0.269231
		0.441176 0.264706 0.294118
		0.461538 0.307692 0.230769
		0.28 0.4 0.32
		0.44 0.08 0.48
		0.458333 0.291667 0.25
		0.305556 0.305556 0.388889
		0.372881 0.322034 0.305085
		0.5 0.277778 0.222222
		0.40678 0.372881 0.220339
		0.392857 0.297619 0.309524
		0.2 0.3 0.5
		0.304348 0.304348 0.391304
		0.275 0.4 0.325
		0.111111 0.333333 0.555556
		0.45283 0.226415 0.320755
		0.382353 0.441176 0.176471
		0.421053 0.263158 0.315789
		0.325581 0.418605 0.255814
		0.4 0.352941 0.247059
		0.5 0 0.5
		0.75 0.25 0
		1 0 0
		0.6 0.2 0.2
		0.5 0.166667 0.333333
		0.666667 0.222222 0.111111
		0.333333 0.333333 0.333333
		0.294118 0.352941 0.352941
		0.571429 0.285714 0.142857
		0.5 0.5 0
		0.857143 0.142857 0
		0.636364 0.181818 0.181818
		0.333333 0.25 0.416667
		0.230769 0.153846 0.615385
		0.333333 0.428571 0.238095
		0.5 0.125 0.375
		0.4 0.466667 0.133333
		0.333333 0.266667 0.4
		0.5 0.5 0
		0.4 0.4 0.2
		0.555556 0.166667 0.277778
		0.5 0.25 0.25
		0.352941 0.235294 0.411765
		0.344828 0.413793 0.241379
		0.263158 0.368421 0.368421
		0.222222 0.388889 0.388889
		0.416667 0.25 0.333333
		0.142857 0.285714 0.571429
		0.153846 0.538462 0.307692
		0.307692 0.153846 0.538462
		0.5 0.214286 0.285714
		0.333333 0.333333 0.333333
		0.210526 0.368421 0.421053
		0.692308 0.153846 0.153846
		0.333333 0.285714 0.380952
		0.382353 0.264706 0.352941
		0.125 0.5 0.375
		0.347826 0.304348 0.347826
		0.428571 0.190476 0.380952
		0.583333 0.166667 0.25
		0.388889 0.277778 0.333333
		0.375 0.328125 0.296875
		0.619048 0.333333 0.047619
		0.372093 0.348837 0.27907
		0.423077 0.0961538 0.480769
		0.230769 0.461538 0.307692
		0.666667 0.133333 0.2
		0.225806 0.322581 0.451613
		0.428571 0.333333 0.238095
		0.411765 0.294118 0.294118
		0.5 0.166667 0.333333
		0.434783 0.173913 0.391304
		0.325581 0.372093 0.302326
		0.282609 0.326087 0.391304
		0.5 0 0.5
		0.5 0.375 0.125
		0.428571 0.571429 0
		0.2 0.4 0.4
		0.473684 0.421053 0.105263
		0.375 0.25 0.375
		0.454545 0.181818 0.363636
		0.272727 0.454545 0.272727
		0.375 0.28125 0.34375
		0.375 0.25 0.375
		0.190476 0.333333 0.47619
		0.5625 0.25 0.1875
		0.421053 0.210526 0.368421
		0.37037 0.407407 0.222222
		0.26087 0.391304 0.347826
		0.2 0.4 0.4
		0.40625 0.34375 0.25
		0.333333 0.266667 0.4
		0.538462 0.384615 0.0769231
		0.5 0.375 0.125
		0.571429 0.214286 0.214286
		0.277778 0.444444 0.277778
		0.454545 0.318182 0.227273
		0.411765 0.323529 0.264706
		0.176471 0.411765 0.411765
		0.433333 0.333333 0.233333
		0.35 0.316667 0.333333
		0.5 0 0.5
		0.6 0.2 0.2
		0.625 0.125 0.25
		0.333333 0 0.666667
		0.333333 0.444444 0.222222
		0.333333 0.4 0.266667
		0.2 0.4 0.4
		0.6 0.266667 0.133333
		0.176471 0.529412 0.294118
		0.5 0.166667 0.333333
		0.25 0.75 0
		0.5625 0.25 0.1875
		0.214286 0.285714 0.5
		0.25 0.375 0.375
		0.428571 0.214286 0.357143
		0.333333 0.2 0.466667
		0.444444 0.333333 0.222222
		0.234043 0.425532 0.340426
		0.222222 0.333333 0.444444
		0.333333 0.333333 0.333333
		0.52381 0.238095 0.238095
		0.333333 0.444444 0.222222
		0.235294 0.352941 0.411765
		0.36 0.32 0.32
		0.583333 0.25 0.166667
		0.375 0.208333 0.416667
		0.5 0.225 0.275
		0 0.5 0.5
		0.222222 0.222222 0.555556
		0.363636 0.409091 0.227273
		0.428571 0.357143 0.214286
		0.5 0.166667 0.333333
		0.35 0.3 0.35
		0.230769 0.538462 0.230769
		0.310345 0.448276 0.241379
		0.396226 0.320755 0.283019
		0.333333 0.333333 0.333333
		0.37931 0.310345 0.310345
		0.382353 0.264706 0.352941
		0.304348 0.391304 0.304348
		0.363636 0.454545 0.181818
		0.346154 0.288462 0.365385
		0.405405 0.243243 0.351351
		0.367347 0.387755 0.244898
		0.412371 0.381443 0.206186
		0.5 0.142857 0.357143
		0.409091 0.409091 0.181818
		0.304348 0.391304 0.304348
		0.423077 0.423077 0.153846
		0.351351 0.351351 0.297297
		0.357143 0.369048 0.27381
		0.485714 0.342857 0.171429
		0.327273 0.327273 0.345455
		0.466667 0.24 0.293333
		1 0 0
		0.4 0.4 0.2
		0.545455 0.272727 0.181818
		0.357143 0.285714 0.357143
		0.5 0.25 0.25
		0.36 0.24 0.4
		0.4 0.4 0.2
		0.375 0.21875 0.40625
		0.44186 0.232558 0.325581
		0.555556 0.111111 0.333333
		0.380952 0.47619 0.142857
		0.5 0.363636 0.136364
		0.25 0.5 0.25
		0.5 0.23913 0.26087
		0.333333 0.333333 0.333333
		0.48 0.2 0.32
		0.321429 0.357143 0.321429
		0.349206 0.31746 0.333333
		0.5 0 0.5
		0.47619 0.285714 0.238095
		0.351351 0.27027 0.378378
		0.333333 0.266667 0.4
		0.484848 0.121212 0.393939
		0.464286 0.303571 0.232143
		0.478261 0.26087 0.26087
		0.440678 0.20339 0.355932
		0.426966 0.370787 0.202247
		0.25 0.5 0.25
		0 0.5 0.5
		0.166667 0.5 0.333333
		1 0 0
		0.571429 0 0.428571
		0.615385 0 0.384615
		0.153846 0.538462 0.307692
		0.285714 0.428571 0.285714
		0.411765 0.235294 0.352941
		0.6 0.2 0.2
		0.375 0.5 0.125
		0.714286 0 0.285714
		0.3 0.6 0.1
		0.333333 0.222222 0.444444
		0.625 0.166667 0.208333
		0.583333 0.25 0.166667
		0.384615 0.384615 0.230769
		0.44 0.28 0.28
		0.4 0.4 0.2
		0.75 0 0.25
		0.625 0.25 0.125
		0.375 0.5 0.125
		0.25 0.3125 0.4375
		0.387097 0.387097 0.225806
		0.25 0 0.75
		0.409091 0.363636 0.227273
		0.40625 0.34375 0.25
		0.5 0.166667 0.333333
		0.428571 0.428571 0.142857
		0.25 0.4375 0.3125
		0.9 0 0.1
		0.142857 0.571429 0.285714
		0.321429 0.285714 0.392857
		0.25 0.375 0.375
		0.388889 0.444444 0.166667
		0.592593 0.222222 0.185185
		0.222222 0.555556 0.222222
		0.5 0.363636 0.136364
		0.241379 0.413793 0.344828
		0.307692 0.230769 0.461538
		0.448276 0.241379 0.310345
		0.490909 0.2 0.309091
		0.485714 0.314286 0.2
		0.234043 0.404255 0.361702
		0.309859 0.380282 0.309859
		0.363636 0.454545 0.181818
		0.285714 0.380952 0.333333
		0.307692 0.384615 0.307692
		0.454545 0.272727 0.272727
		0.452381 0.309524 0.238095
		0.327586 0.344828 0.327586
		0.44 0.4 0.16
		0.382353 0.352941 0.264706
		0.4625 0.3375 0.2
		0.6 0 0.4
		0.333333 0.222222 0.444444
		0.333333 0.222222 0.444444
		0.571429 0.285714 0.142857
		0.214286 0.428571 0.357143
		0.291667 0.208333 0.5
		0.307692 0.230769 0.461538
		0.571429 0.214286 0.214286
		0.37037 0.259259 0.37037
		0.444444 0.444444 0.111111
		0.578947 0.263158 0.157895
		0.333333 0.37037 0.296296
		0.294118 0.470588 0.235294
		0.352941 0.323529 0.323529
		0.447368 0.394737 0.157895
		0.304348 0.304348 0.391304
		0.407407 0.407407 0.185185
		0.380952 0.285714 0.333333
		0.428571 0.0714286 0.5
		0.5 0.375 0.125
		0.368421 0.315789 0.315789
		0.357143 0.285714 0.357143
		0.142857 0.666667 0.190476
		0.310345 0.293103 0.396552
		0.32 0.44 0.24
		0.304348 0.217391 0.478261
		0.491228 0.263158 0.245614
		0 0 0
		0.5 0.25 0.25
		0.625 0.375 0
		0.333333 0.222222 0.444444
		0.307692 0.461538 0.230769
		0.666667 0.166667 0.166667
		0.75 0.25 0
		0.416667 0.333333 0.25
		0.36 0.36 0.28
		0.5 0 0.5
		0.25 0.375 0.375
		0.35 0.35 0.3
		0.625 0.125 0.25
		0.461538 0.307692 0.230769
		0.333333 0.259259 0.407407
		0.272727 0.272727 0.454545
		0.352941 0.235294 0.411765
		0.289474 0.263158 0.447368
		0.625 0.125 0.25
		0.333333 0.333333 0.333333
		0.333333 0.2 0.466667
		0.545455 0.0909091 0.363636
		0.3125 0.3125 0.375
		0.454545 0.181818 0.363636
		0.5 0.333333 0.166667
		0.52381 0.190476 0.285714
		0.333333 0.288889 0.377778
		0.333333 0.166667 0.5
		0.444444 0.222222 0.333333
		0.352941 0.235294 0.411765
		0.5 0.4 0.1
		0.565217 0.217391 0.217391
		0.192308 0.576923 0.230769
		0.4 0.2 0.4
		0.529412 0.264706 0.205882
		0.538462 0.307692 0.153846
		0.444444 0.222222 0.333333
		0.357143 0.428571 0.214286
		0.416667 0.291667 0.291667
		0.428571 0.238095 0.333333
		0.25 0.388889 0.361111
		0.351852 0.333333 0.314815
		0.458333 0.291667 0.25
		0.490196 0.27451 0.235294
		0.321429 0.297619 0.380952
		0.2 0.4 0.4
		0.347826 0.391304 0.26087
		0.428571 0.392857 0.178571
		0.521739 0.26087 0.217391
		0.472222 0.333333 0.194444
		0.368421 0.245614 0.385965
		0.416667 0.375 0.208333
		0.419355 0.387097 0.193548
		0.391892 0.324324 0.283784
		0 0.25 0.75
		0.333333 0.166667 0.5
		0.375 0.3125 0.3125
		0.5 0 0.5
		0.5 0.375 0.125
		0.421053 0.315789 0.263158
		0.5 0.333333 0.166667
		0.47619 0.285714 0.238095
		0.322581 0.225806 0.451613
		0.428571 0 0.571429
		0.2 0.266667 0.533333
		0.478261 0.26087 0.26087
		0.470588 0.117647 0.411765
		0.586207 0.310345 0.103448
		0.44898 0.367347 0.183673
		0.333333 0.277778 0.388889
		0.333333 0.545455 0.121212
		0.393443 0.377049 0.229508
		0.4375 0.25 0.3125
		0.470588 0.176471 0.352941
		0.48 0.36 0.16
		0.388889 0.277778 0.333333
		0.378378 0.162162 0.459459
		0.342105 0.236842 0.421053
		0.5 0.214286 0.285714
		0.392857 0.25 0.357143
		0.315789 0.315789 0.368421
		0.25 0.25 0.5
		0.2 0.4 0.4
		0.363636 0.545455 0.0909091
		0.4 0.2 0.4
		0.454545 0.272727 0.272727
		0.444444 0.277778 0.277778
		0.333333 0 0.666667
		0.214286 0.428571 0.357143
		0.368421 0.315789 0.315789
		0 0.285714 0.714286
		0.272727 0.272727 0.454545
		0.214286 0.571429 0.214286
		0.3 0.4 0.3
		0.384615 0.307692 0.307692
		0.314286 0.4 0.285714
		0.285714 0.357143 0.357143
		0.296296 0.259259 0.444444
		0.365854 0.317073 0.317073
		0.6 0.4 0
		0.4 0.2 0.4
		0.307692 0.384615 0.307692
		0.5 0.166667 0.333333
		0.333333 0.238095 0.428571
		0.269231 0.346154 0.384615
		0.333333 0.190476 0.47619
		0.451613 0.290323 0.258065
		0.536585 0.195122 0.268293
		0.428571 0.285714 0.285714
		0.363636 0.454545 0.181818
		0.352941 0.235294 0.411765
		0.294118 0.294118 0.411765
		0.230769 0.346154 0.423077
		0.48 0.12 0.4
		0.428571 0.142857 0.428571
		0.310345 0.482759 0.206897
		0.4 0.272727 0.327273
		0.277778 0.277778 0.444444
		0.461538 0.307692 0.230769
		0.367347 0.367347 0.265306
		0.448276 0.206897 0.344828
		0.326531 0.489796 0.183673
		0.418919 0.351351 0.22973
		0.322581 0.387097 0.290323
		0.3375 0.225 0.4375
		0.34375 0.385417 0.270833
		0.388889 0.222222 0.388889
		0.413793 0.344828 0.241379
		0.302326 0.325581 0.372093
		0.352941 0.294118 0.352941
		0.44186 0.186047 0.372093
		0.341176 0.282353 0.376471
		0.475 0.25 0.275
		0.5 0.274194 0.225806
		0.441176 0.235294 0.323529
		0.285714 0.571429 0.142857
		0.125 0.5 0.375
		0.533333 0.133333 0.333333
		0.454545 0.181818 0.363636
		0.3 0.45 0.25
		0.363636 0.212121 0.424242
		0.235294 0.176471 0.588235
		0.228571 0.314286 0.457143
		0.325581 0.395349 0.27907
		0.428571 0.357143 0.214286
		0.388889 0.333333 0.277778
		0.434783 0.173913 0.391304
		0.3 0.45 0.25
		0.472222 0.222222 0.305556
		0.288136 0.474576 0.237288
		0.307692 0.230769 0.461538
		0.358974 0.333333 0.307692
		0.402778 0.222222 0.375
		0.625 0.25 0.125
		0.470588 0.294118 0.235294
		0.4375 0.3125 0.25
		0.392857 0.178571 0.428571
		0.40625 0.1875 0.40625
		0.508197 0.278689 0.213115
		0.32 0.44 0.24
		0.354167 0.25 0.395833
		0.397436 0.153846 0.448718
		0.166667 0.333333 0.5
		0.4 0.2 0.4
		0 0.5 0.5
		0.8 0 0.2
		0.333333 0.444444 0.222222
		0.285714 0.428571 0.285714
		0.333333 0.333333 0.333333
		0.363636 0.272727 0.363636
		0.466667 0.2 0.333333
		0.428571 0.142857 0.428571
		0.384615 0.461538 0.153846
		0.363636 0.363636 0.272727
		0.307692 0.461538 0.230769
		0.5625 0.1875 0.25
		0.5 0.25 0.25
		0.5 0.166667 0.333333
		0.47619 0.238095 0.285714
		0.5 0.321429 0.178571
		0.5 0.166667 0.333333
		0.3 0.2 0.5
		0.4 0.2 0.4
		0.285714 0.357143 0.357143
		0.25 0.5 0.25
		0.454545 0.272727 0.272727
		0.333333 0.380952 0.285714
		0.323529 0.264706 0.411765
		0.53125 0.1875 0.28125
		0.5 0.25 0.25
		0.384615 0.307692 0.307692
		0.461538 0.307692 0.230769
		0.666667 0.0666667 0.266667
		0.5 0.125 0.375
		0.5 0.214286 0.285714
		0.25 0.65 0.1
		0.37931 0.275862 0.344828
		0.368421 0.315789 0.315789
		1 0 0
		0.384615 0.230769 0.384615
		0.382353 0.264706 0.352941
		0.333333 0.375 0.291667
		0.404762 0.357143 0.238095
		0.267857 0.339286 0.392857
		0.322581 0.354839 0.322581
		0.456522 0.195652 0.347826
		0.241935 0.370968 0.387097
		0.454545 0.272727 0.272727
		0.210526 0.421053 0.368421
		0.394737 0.447368 0.157895
		0.315789 0.315789 0.368421
		0.4 0.257143 0.342857
		0.296296 0.277778 0.425926
		0.433333 0.3 0.266667
		0.42623 0.311475 0.262295
		0.346667 0.306667 0.346667
		0.4 0.4 0.2
		0.333333 0.666667 0
		0.357143 0.428571 0.214286
		0.166667 0.333333 0.5
		0.375 0.375 0.25
		0.409091 0.272727 0.318182
		0.333333 0.5 0.166667
		0.5 0.25 0.25
		0.208333 0.5 0.291667
		0.538462 0.0769231 0.384615
		0.25 0.333333 0.416667
		0.321429 0.357143 0.321429
		0.411765 0.411765 0.176471
		0.444444 0.388889 0.166667
		0.259259 0.444444 0.296296
		0.380952 0.285714 0.333333
		0.351351 0.27027 0.378378
		0.431373 0.27451 0.294118
		0.444444 0.333333 0.222222
		0.181818 0.363636 0.454545
		0.551724 0.241379 0.206897
		0.3 0.4 0.3
		0.419355 0.322581 0.258065
		0.435897 0.358974 0.205128
		0.428571 0.285714 0.285714
		0.52381 0.285714 0.190476
		0.313433 0.328358 0.358209
		0.75 0 0.25
		0.214286 0.428571 0.357143
		0.222222 0.333333 0.444444
		0.461538 0.307692 0.230769
		0.529412 0.176471 0.294118
		0.545455 0.227273 0.227273
		0.133333 0.333333 0.533333
		0.375 0.5 0.125
		0.297297 0.27027 0.432432
		0.333333 0.333333 0.333333
		0.3125 0.5 0.1875
		0.347826 0.347826 0.304348
		0.36 0.24 0.4
		0.294118 0.294118 0.411765
		0.446429 0.267857 0.285714
		0.45 0.35 0.2
		0.444444 0.333333 0.222222
		0.424242 0.378788 0.19697
		0.315789 0.421053 0.263158
		0.222222 0.333333 0.444444
		0.407407 0.296296 0.296296
		0.5 0.375 0.125
		0.314286 0.342857 0.342857
		0.4 0.3 0.3
		0.375 0.375 0.25
		0.421053 0.289474 0.289474
		0.333333 0.320513 0.346154
		0.25 0.625 0.125
		0.409091 0.181818 0.409091
		0.5 0.375 0.125
		0.315789 0.368421 0.315789
		0.526316 0.236842 0.236842
		0.490566 0.283019 0.226415
		0.388889 0.111111 0.5
		0.230769 0.461538 0.307692
		0.43662 0.338028 0.225352
		0.333333 0.5 0.166667
		0.487179 0.25641 0.25641
		0.354167 0.3125 0.333333
		0.357143 0.25 0.392857
		0.451613 0.306452 0.241935
		0.383838 0.373737 0.242424
		0.320755 0.396226 0.283019
		0.382022 0.303371 0.314607
		0.411765 0.320261 0.267974
		0.45 0.2 0.35
		0.466667 0.266667 0.266667
		0.346154 0.269231 0.384615
		0.302326 0.44186 0.255814
		0.492063 0.238095 0.269841
		0.405172 0.327586 0.267241
		0.396825 0.333333 0.269841
		0.397849 0.333333 0.268817
		0.353383 0.278195 0.368421
		0.285714 0.285714 0.428571
		0.5 0.0833333 0.416667
		0.681818 0.136364 0.181818
		0.578947 0.210526 0.210526
		0.48 0.36 0.16
		0.447368 0.289474 0.263158
		0.5 0.136364 0.363636
		0.34375 0.28125 0.375
		0.471698 0.226415 0.301887
		0.529412 0.0588235 0.411765
		0.518519 0.333333 0.148148
		0.431373 0.27451 0.294118
		0.48 0.24 0.28
		0.375 0.275 0.35
		0.474359 0.282051 0.24359
		0.411765 0.235294 0.352941
		0.464286 0.285714 0.25
		0.375 0.316667 0.308333
		0.428571 0.357143 0.214286
		0.464286 0.214286 0.321429
		0.452381 0.261905 0.285714
		0.416667 0.222222 0.361111
		0.307692 0.384615 0.307692
		0.404255 0.351064 0.244681
		0.405405 0.216216 0.378378
		0.424242 0.318182 0.257576
		0.40625 0.296875 0.296875
		0.166667 0.666667 0.166667
		0.230769 0.538462 0.230769
		0.44 0.36 0.2
		0.333333 0.266667 0.4
		0.421053 0.157895 0.421053
		0.285714 0.285714 0.428571
		0.347826 0.478261 0.173913
		0.483871 0.193548 0.322581
		0.395833 0.354167 0.25
		0.222222 0.333333 0.444444
		0.458333 0.208333 0.333333
		0.431818 0.25 0.318182
		0.30303 0.30303 0.393939
		0.354167 0.375 0.270833
		0.4375 0.2875 0.275
		0.295455 0.409091 0.295455
		0.338983 0.355932 0.305085
		0.4 0.346667 0.253333
		0.315789 0.263158 0.421053
		0.36 0.36 0.28
		0.4 0.275 0.325
		0.3 0.35 0.35
		0.378378 0.324324 0.297297
		0.371429 0.385714 0.242857
		0.285714 0.392857 0.321429
		0.454545 0.295455 0.25
		0.376471 0.352941 0.270588
		0.538462 0.153846 0.307692
		0.380952 0.333333 0.285714
		0.393939 0.272727 0.333333
		0.25 0.458333 0.291667
		0.473684 0.236842 0.289474
		0.425 0.3375 0.2375
		0.333333 0.358974 0.307692
		0.465116 0.302326 0.232558
		0.388235 0.247059 0.364706
		0.482759 0.103448 0.413793
		0.36 0.32 0.32
		0.28 0.293333 0.426667
		0.488889 0.266667 0.244444
		0.411765 0.282353 0.305882
		0.379562 0.343066 0.277372
		0.402985 0.208955 0.38806
		0.40566 0.301887 0.292453
		0.373626 0.340659 0.285714
		0.434783 0.304348 0.26087
		0.333333 0.285714 0.380952
		0.428571 0.269841 0.301587
		0.272727 0.4 0.327273
		0.371134 0.391753 0.237113
		0.437908 0.27451 0.287582
		0.363636 0.309091 0.327273
		0.394495 0.330275 0.275229
		0.398104 0.298578 0.303318
		0.444444 0.111111 0.444444
		0.333333 0.222222 0.444444
		0.346154 0.423077 0.230769
		0.333333 0.333333 0.333333
		0.347826 0.347826 0.304348
		0.433333 0.383333 0.183333
		0.527778 0.222222 0.25
		0.254902 0.313725 0.431373
		0.380282 0.352113 0.267606
		0.275862 0.310345 0.413793
		0.368421 0.473684 0.157895
		0.30303 0.378788 0.318182
		0.386364 0.295455 0.318182
		0.477612 0.283582 0.238806
		0.448598 0.242991 0.308411
		0.40678 0.338983 0.254237
		0.296296 0.345679 0.358025
		0.452555 0.284672 0.262774
		0.52 0.24 0.24
		0.323529 0.352941 0.323529
		0.327869 0.409836 0.262295
		0.540541 0.243243 0.216216
		0.363636 0.376623 0.25974
		0.415254 0.271186 0.313559
		0.428571 0.339286 0.232143
		0.425287 0.298851 0.275862
		0.348993 0.261745 0.389262
		0.571429 0.285714 0.142857
		0.4 0.3 0.3
		0.529412 0.176471 0.294118
		0.333333 0.5 0.166667
		0.3125 0.1875 0.5
		0.363636 0.409091 0.227273
		0.26087 0.391304 0.347826
		0.4375 0.3125 0.25
		0.411765 0.323529 0.264706
		0.285714 0.214286 0.5
		0.541667 0.0833333 0.375
		0.541667 0.208333 0.25
		0.210526 0.368421 0.421053
		0.347826 0.347826 0.304348
		0.408163 0.265306 0.326531
		0.37931 0.310345 0.310345
		0.333333 0.311111 0.355556
		0.358209 0.313433 0.328358
		0.571429 0.142857 0.285714
		0.4 0.4 0.2
		0.545455 0.272727 0.181818
		0.642857 0.142857 0.214286
		0.40625 0.4375 0.15625
		0.553571 0.25 0.196429
		0.304348 0.434783 0.26087
		0.392157 0.313725 0.294118
		0.37037 0.308642 0.320988
		0.272727 0.545455 0.181818
		0.421053 0.157895 0.421053
		0.416667 0.277778 0.305556
		0.461538 0.384615 0.153846
		0.333333 0.37037 0.296296
		0.37931 0.310345 0.310345
		0.269231 0.461538 0.269231
		0.38 0.14 0.48
		0.411765 0.338235 0.25
		0.470588 0.235294 0.294118
		0.386364 0.363636 0.25
		0.333333 0.266667 0.4
		0.296296 0.222222 0.481481
		0.365079 0.285714 0.349206
		0.409091 0.263636 0.327273
		0.365079 0.301587 0.333333
		0.401961 0.294118 0.303922
		0.368421 0.302632 0.328947
		0.391304 0.391304 0.217391
		0.357143 0.333333 0.309524
		0.431034 0.275862 0.293103
		0.363636 0.454545 0.181818
		0.439394 0.212121 0.348485
		0.356522 0.269565 0.373913
		0.382979 0.297872 0.319149
		0.425926 0.259259 0.314815
		0.421769 0.319728 0.258503
		0.5 0.333333 0.166667
		0.6 0.266667 0.133333
		0.333333 0.166667 0.5
		0.357143 0.285714 0.357143
		0.526316 0.210526 0.263158
		0.320755 0.339623 0.339623
		0.380952 0.238095 0.380952
		0.32 0.4 0.28
		0.307692 0.353846 0.338462
		0.291667 0.5 0.208333
		0.586207 0.275862 0.137931
		0.339623 0.471698 0.188679
		0.46875 0.3125 0.21875
		0.345455 0.254545 0.4
		0.414141 0.353535 0.232323
		0.45098 0.294118 0.254902
		0.347826 0.304348 0.347826
		0.385246 0.303279 0.311475
		0.333333 0.25 0.416667
		0.47619 0.333333 0.190476
		0.413043 0.369565 0.217391
		0.322581 0.258065 0.419355
		0.340426 0.340426 0.319149
		0.389474 0.315789 0.294737
		0.45 0.225 0.325
		0.30137 0.410959 0.287671
		0.448819 0.228346 0.322835
		0 0.5 0.5
		0 0.5 0.5
		0.5 0.5 0
		1 0 0
		0.3 0.3 0.4
		0.444444 0.333333 0.222222
		0.5 0.25 0.25
		0.4 0.4 0.2
		0.35 0.3 0.35
		0.333333 0.166667 0.5
		0.285714 0.285714 0.428571
		0.538462 0.307692 0.153846
		0.571429 0.285714 0.142857
		0.571429 0.142857 0.285714
		0.333333 0.333333 0.333333
		0.333333 0.25 0.416667
		0.421053 0.263158 0.315789
		0.40625 0.28125 0.3125
		0 1 0
		0.375 0.625 0
		0.230769 0.461538 0.307692
		1 0 0
		0.0769231 0.307692 0.615385
		0.333333 0.380952 0.285714
		0.444444 0.333333 0.222222
		0.5 0.428571 0.0714286
		0.25 0.40625 0.34375
		0.285714 0.428571 0.285714
		0.5 0.333333 0.166667
		0.333333 0.333333 0.333333
		0.285714 0.571429 0.142857
		0.263158 0.315789 0.421053
		0.388889 0.444444 0.166667
		0.4 0.5 0.1
		0.444444 0.388889 0.166667
		0.36 0.28 0.36
		0.25 0.375 0.375
		0.272727 0.363636 0.363636
		0.347826 0.347826 0.304348
		0.333333 0.333333 0.333333
		0.526316 0.263158 0.210526
		0.390244 0.390244 0.219512
		0.368421 0.473684 0.157895
		0.366667 0.266667 0.366667
		0.452381 0.214286 0.333333
		0.3 0.4 0.3
		0.7 0.3 0
		0.285714 0.428571 0.285714
		0.529412 0.235294 0.235294
		0.413793 0.37931 0.206897
		0.444444 0.222222 0.333333
		0.4 0.333333 0.266667
		0.333333 0.333333 0.333333
		0.314815 0.388889 0.296296
		0 0.25 0.75
		0 0.333333 0.666667
		0.6 0.4 0
		0.2 0.4 0.4
		0.5 0.333333 0.166667
		0.470588 0.352941 0.176471
		0.357143 0.285714 0.357143
		0 0.7 0.3
		0.454545 0.181818 0.363636
		0.5 0.25 0.25
		0.333333 0.222222 0.444444
		0.481481 0.296296 0.222222
		0.666667 0.25 0.0833333
		0.428571 0.357143 0.214286
		0.47619 0.238095 0.285714
		0.333333 0.166667 0.5
		0.441176 0.235294 0.323529
		0.45 0.3 0.25
		0.2 0.5 0.3
		0.4 0.3 0.3
		0.333333 0.333333 0.333333
		0.642857 0.142857 0.214286
		0.235294 0.470588 0.294118
		0.410256 0.25641 0.333333
		0.55 0.25 0.2
		0.387097 0.225806 0.387097
		0.375 0.291667 0.333333
		0 0.5 0.5
		0.25 0.375 0.375
		0.333333 0.416667 0.25
		0.571429 0.285714 0.142857
		0.125 0.25 0.625
		0.333333 0.466667 0.2
		0.25 0.5 0.25
		0.75 0.125 0.125
		0.391304 0.347826 0.26087
		0.166667 0.166667 0.666667
		0.0909091 0.363636 0.545455
		0.333333 0.416667 0.25
		0.0833333 0.666667 0.25
		0.461538 0.0769231 0.461538
		0.291667 0.291667 0.416667
		0.285714 0.428571 0.285714
		0.5 0.25 0.25
		0.464286 0.285714 0.25
		0.333333 0.333333 0.333333
		0.7 0.1 0.2
		0.428571 0.428571 0.142857
		0.2 0.4 0.4
		0.5 0.416667 0.0833333
		0.392857 0.357143 0.25
		0.285714 0.428571 0.285714
		0.357143 0.357143 0.285714
		0.416667 0.194444 0.388889
		0.625 0.25 0.125
		0.142857 0.285714 0.571429
		0.3 0.4 0.3
		0.714286 0.285714 0
		0.421053 0.263158 0.315789
		0.380952 0.428571 0.190476
		0.6 0.2 0.2
		0.266667 0.4 0.333333
		0.413043 0.26087 0.326087
		0.333333 0.5 0.166667
		0.333333 0.4 0.266667
		0.375 0.416667 0.208333
		0.5 0.1 0.4
		0.393939 0.242424 0.363636
		0.428571 0.387755 0.183673
		0.28125 0.34375 0.375
		0.320755 0.339623 0.339623
		0.464789 0.295775 0.239437
		0.6 0.1 0.3
		0.35 0.4 0.25
		0.5 0.166667 0.333333
		0.416667 0.333333 0.25
		0.214286 0.464286 0.321429
		0.442623 0.295082 0.262295
		0.352941 0.352941 0.294118
		0.453125 0.328125 0.21875
		0.414634 0.329268 0.256098
		0 0 0
		0.25 0 0.75
		0.375 0.375 0.25
		0.166667 0.666667 0.166667
		0.3125 0.25 0.4375
		0.458333 0.333333 0.208333
		0.4 0.2 0.4
		0.434783 0.26087 0.304348
		0.285714 0.371429 0.342857
		0.4 0.0666667 0.533333
		0.307692 0.307692 0.384615
		0.392857 0.357143 0.25
		0.35 0.3 0.35
		0.428571 0.25 0.321429
		0.44898 0.244898 0.306122
		0.238095 0.428571 0.333333
		0.514286 0.171429 0.314286
		0.396825 0.222222 0.380952
		0.555556 0.111111 0.333333
		0.428571 0.214286 0.357143
		0.4 0.32 0.28
		0.210526 0.526316 0.263158
		0.233333 0.366667 0.4
		0.326923 0.288462 0.384615
		0.3 0.433333 0.266667
		0.454545 0.272727 0.272727
		0.373134 0.298507 0.328358
		0 0 1
		0.6 0.4 0
		0.285714 0.571429 0.142857
		1 0 0
		0.8 0 0.2
		0.375 0.375 0.25
		0.6 0 0.4
		0.272727 0.363636 0.363636
		0.461538 0.384615 0.153846
		0.333333 0.333333 0.333333
		0.444444 0.333333 0.222222
		0.166667 0.166667 0.666667
		0.555556 0.444444 0
		0.461538 0.230769 0.307692
		0.428571 0.333333 0.238095
		0.555556 0.222222 0.222222
		0.5 0.25 0.25
		0.321429 0.392857 0.285714
		0 1 0
		0.25 0.5 0.25
		0.5 0.3 0.2
		0.363636 0.272727 0.363636
		0.454545 0.272727 0.272727
		0.375 0.291667 0.333333
		0.285714 0.285714 0.428571
		0.466667 0.4 0.133333
		0.32 0.32 0.36
		0.333333 0.333333 0.333333
		0.125 0.5 0.375
		0.555556 0.222222 0.222222
		0.222222 0.222222 0.555556
		0.230769 0.461538 0.307692
		0.411765 0.470588 0.117647
		0.333333 0.444444 0.222222
		0.533333 0.333333 0.133333
		0.4 0.266667 0.333333
		0 0.833333 0.166667
		0.538462 0.153846 0.307692
		0.434783 0.26087 0.304348
		0.409091 0.272727 0.318182
		0.423077 0.307692 0.269231
		0.307692 0.358974 0.333333
		0.409091 0.181818 0.409091
		0.323529 0.382353 0.294118
		0.458333 0.208333 0.333333
		0.3 0.4 0.3
		0.428571 0.214286 0.357143
		0.423077 0.230769 0.346154
		0.333333 0.266667 0.4
		0.434783 0.0869565 0.478261
		0.266667 0.355556 0.377778
		0.3125 0.4375 0.25
		0.55102 0.163265 0.285714
		0.442308 0.269231 0.288462
		0.25 0.5 0.25
		0.75 0 0.25
		0.333333 0.5 0.166667
		0.5 0.1 0.4
		0.5 0.2 0.3
		0.428571 0.428571 0.142857
		0.2 0.6 0.2
		0.470588 0.117647 0.411765
		0.428571 0.428571 0.142857
		0.5 0.2 0.3
		0.52381 0.238095 0.238095
		0.642857 0.214286 0.142857
		0.3125 0.4375 0.25
		0.48 0.44 0.08
		0.333333 0.208333 0.458333
		0.375 0.3125 0.3125
		0.428571 0.357143 0.214286
		0.514286 0.371429 0.114286
		0.5 0.375 0.125
		0.538462 0.230769 0.230769
		0.272727 0.636364 0.0909091
		0.636364 0.272727 0.0909091
		0.428571 0.380952 0.190476
		0.655172 0.241379 0.103448
		0.25 0.5 0.25
		0.423077 0.307692 0.269231
		0.304348 0.282609 0.413043
		0.5 0 0.5
		0 0.5 0.5
		0.333333 0.333333 0.333333
		0.666667 0.333333 0
		0.285714 0.428571 0.285714
		0.428571 0.571429 0
		0.4 0.2 0.4
		0.454545 0.363636 0.181818
		0.25 0.5 0.25
		0.25 0.75 0
		0.4 0 0.6
		0.5 0.375 0.125
		0.5 0.2 0.3
		0.454545 0.0909091 0.454545
		0.392857 0.321429 0.285714
		0.428571 0.571429 0
		0.25 0.333333 0.416667
		0.37037 0.296296 0.333333
		0.5 0 0.5
		0.75 0.25 0
		0.25 0.375 0.375
		0.142857 0.714286 0.142857
		0.25 0.125 0.625
		0.315789 0.368421 0.315789
		0.333333 0.166667 0.5
		0.35 0.25 0.4
		0.333333 0.25 0.416667
		0.8 0.2 0
		0.75 0 0.25
		0.571429 0 0.428571
		0.333333 0.555556 0.111111
		0.333333 0.466667 0.2
		0.266667 0.466667 0.266667
		0.375 0.125 0.5
		0.391304 0.26087 0.347826
		0.296296 0.518519 0.185185
		0.285714 0.285714 0.428571
		0.166667 0.583333 0.25
		0.206897 0.310345 0.482759
		0.5 0.2 0.3
		0.52381 0.333333 0.142857
		0.333333 0.296296 0.37037
		0.526316 0.263158 0.210526
		0.323529 0.382353 0.294118
		0.333333 0.31746 0.349206
		0.166667 0.416667 0.416667
		0.411765 0.294118 0.294118
		0.411765 0.235294 0.352941
		0.352941 0.411765 0.235294
		0.27907 0.27907 0.44186
		0.512821 0.230769 0.25641
		0.411765 0.176471 0.411765
		0.461538 0.230769 0.307692
		0.453125 0.203125 0.34375
		0.666667 0.333333 0
		0 0 0
		0.6 0.2 0.2
		0.333333 0.333333 0.333333
		0.3 0.3 0.4
		0.208333 0.458333 0.333333
		0.166667 0.166667 0.666667
		0.368421 0.210526 0.421053
		0.423077 0.384615 0.192308
		0.2 0.4 0.4
		0.230769 0.384615 0.384615
		0.333333 0.25 0.416667
		0.571429 0.428571 0
		0.5 0.166667 0.333333
		0.166667 0.416667 0.416667
		0.291667 0.291667 0.416667
		0.307692 0.346154 0.346154
		0.369565 0.369565 0.26087
		0.555556 0.222222 0.222222
		0.5 0.1 0.4
		0.444444 0.222222 0.333333
		0.5 0.166667 0.333333
		0.346154 0.307692 0.346154
		0.285714 0.387755 0.326531
		0.368421 0.368421 0.263158
		0.464286 0.285714 0.25
		0.314815 0.425926 0.259259
		0.25 0.25 0.5
		0.5 0 0.5
		0.625 0.125 0.25
		0 0.666667 0.333333
		0.375 0.5 0.125
		0.357143 0.214286 0.428571
		0.3 0.4 0.3
		0.555556 0.111111 0.333333
		0.5 0.333333 0.166667
		0.333333 0.666667 0
		0.714286 0 0.285714
		0.857143 0.142857 0
		0.333333 0.333333 0.333333
		0.315789 0.421053 0.263158
		0.296296 0.37037 0.333333
		0.583333 0.416667 0
		0.25 0.4375 0.3125
		0.466667 0.333333 0.2
		0.666667 0.333333 0
		0.230769 0.538462 0.230769
		0.222222 0.333333 0.444444
		0.222222 0.444444 0.333333
		0.333333 0.277778 0.388889
		0.354839 0.387097 0.258065
		0.333333 0.4 0.266667
		0.419355 0.290323 0.290323
		0.415094 0.264151 0.320755
		0.333333 0.666667 0
		0.666667 0 0.333333
		0.5 0.3125 0.1875
		0.428571 0.285714 0.285714
		0.416667 0.333333 0.25
		0.441176 0.294118 0.264706
		0.25 0.375 0.375
		0.529412 0.411765 0.0588235
		0.341463 0.341463 0.317073
		0.375 0.375 0.25
		0.363636 0.363636 0.272727
		0.411765 0.323529 0.264706
		0.4 0.4 0.2
		0.5 0.352941 0.147059
		0.603774 0.207547 0.188679
		0.432432 0.297297 0.27027
		0.306122 0.285714 0.408163
		0.48 0.253333 0.266667
		0.571429 0.285714 0.142857
		0.388889 0.277778 0.333333
		0.357143 0.25 0.392857
		0.555556 0.222222 0.222222
		0.465116 0.325581 0.209302
		0.37931 0.258621 0.362069
		0.416667 0.208333 0.375
		0.425926 0.388889 0.185185
		0.325843 0.258427 0.41573
		0.5 0 0.5
		0.5 0.333333 0.166667
		0.357143 0.285714 0.357143
		0.5 0.375 0.125
		0.357143 0.357143 0.285714
		0.526316 0.315789 0.157895
		0.444444 0.333333 0.222222
		0.2 0.4 0.4
		0.478261 0.369565 0.152174
		0.416667 0.166667 0.416667
		0.176471 0.294118 0.529412
		0.333333 0.380952 0.285714
		0.5625 0.125 0.3125
		0.444444 0.138889 0.416667
		0.425 0.375 0.2
		0.409091 0.454545 0.136364
		0.444444 0.177778 0.377778
		0.376812 0.347826 0.275362
		0.4 0.1 0.5
		0.45 0.3 0.25
		0.26087 0.26087 0.478261
		0.428571 0.238095 0.333333
		0.461538 0.192308 0.346154
		0.386364 0.386364 0.227273
		0.484848 0.212121 0.30303
		0.341463 0.365854 0.292683
		0.444444 0.222222 0.333333
		0 0.5 0.5
		0.142857 0.714286 0.142857
		0.5 0.25 0.25
		0.25 0 0.75
		0.3 0.5 0.2
		0.375 0.375 0.25
		0.5 0.5 0
		0.8 0 0.2
		0.222222 0.333333 0.444444
		0.2 0.2 0.6
		0.6 0 0.4
		0.6 0 0.4
		0.25 0.5 0.25
		0.235294 0.470588 0.294118
		0.466667 0.2 0.333333
		0.375 0.25 0.375
		0.25 0.5 0.25
		0.444444 0.166667 0.388889
		0 0.666667 0.333333
		0.444444 0.333333 0.222222
		0.181818 0.545455 0.272727
		0.142857 0.285714 0.571429
		0.6 0.2 0.2
		0.583333 0.25 0.166667
		0.571429 0.285714 0.142857
		0.263158 0.368421 0.368421
		0.322581 0.290323 0.387097
		0.375 0.25 0.375
		0 0.666667 0.333333
		0.333333 0.166667 0.5
		0.5 0 0.5
		0.235294 0.352941 0.411765
		0.4 0.36 0.24
		0.333333 0.444444 0.222222
		0.352941 0.352941 0.294118
		0.5 0.357143 0.142857
		0.111111 0.333333 0.555556
		0.230769 0.384615 0.384615
		0.315789 0.368421 0.315789
		0.444444 0.222222 0.333333
		0.434783 0.26087 0.304348
		0.410256 0.25641 0.333333
		0.375 0.375 0.25
		0.454545 0.363636 0.181818
		0.25 0.34375 0.40625
		0.5 0.5 0
		0.466667 0.333333 0.2
		0.482759 0.310345 0.206897
		0.285714 0.214286 0.5
		0.428571 0.321429 0.25
		0.25 0.3 0.45
		0.37931 0.448276 0.172414
		0.275862 0.482759 0.241379
		0.436364 0.327273 0.236364
		0.375 0.25 0.375
		0.5 0.333333 0.166667
		0.111111 0.444444 0.444444
		0.4 0.4 0.2
		0.571429 0.214286 0.214286
		0.4375 0.375 0.1875
		0.384615 0.307692 0.307692
		0.538462 0.307692 0.153846
		0.461538 0.153846 0.384615
		0.375 0.375 0.25
		0.384615 0.307692 0.307692
		0.176471 0.470588 0.352941
		0.333333 0.333333 0.333333
		0.363636 0.227273 0.409091
		0.454545 0.363636 0.181818
		0.5 0.388889 0.111111
		0.518519 0.259259 0.222222
		0.454545 0.309091 0.236364
		0.6 0 0.4
		0.25 0.25 0.5
		0.578947 0.0526316 0.368421
		0.272727 0.318182 0.409091
		0.454545 0.333333 0.212121
		0.346154 0.461538 0.192308
		0.318182 0.409091 0.272727
		0.344828 0.310345 0.344828
		0.418605 0.186047 0.395349
		0.666667 0.333333 0
		0.25 0.5 0.25
		0.333333 0.444444 0.222222
		0.571429 0.285714 0.142857
		0.5 0.2 0.3
		0.533333 0.333333 0.133333
		0.583333 0.166667 0.25
		0.25 0.375 0.375
		0.447368 0.263158 0.289474
		0.333333 0.416667 0.25
		0.642857 0.0714286 0.285714
		0.3 0.35 0.35
		0.3125 0.375 0.3125
		0.333333 0.466667 0.2
		0.510204 0.244898 0.244898
		0.333333 0.333333 0.333333
		0.342857 0.171429 0.485714
		0.359375 0.359375 0.28125
		0.583333 0.166667 0.25
		0.1 0.1 0.8
		0.384615 0.384615 0.230769
		0.545455 0.181818 0.272727
		0.363636 0.363636 0.272727
		0.416667 0.25 0.333333
		0.346154 0.269231 0.384615
		0.481481 0.259259 0.259259
		0.4 0.38 0.22
		0.5 0.2 0.3
		0.272727 0.181818 0.545455
		0.26087 0.217391 0.521739
		0.357143 0.357143 0.285714
		0.366667 0.3 0.333333
		0.555556 0.166667 0.277778
		0.521739 0.173913 0.304348
		0.444444 0.333333 0.222222
		0.333333 0.349206 0.31746
		0.421053 0.421053 0.157895
		0.416667 0.361111 0.222222
		0.5 0.259259 0.240741
		0.428571 0.342857 0.228571
		0.431034 0.172414 0.396552
		0.392405 0.367089 0.240506
		0.363636 0.30303 0.333333
		0.534483 0.172414 0.293103
		0.316667 0.325 0.358333
		0.428571 0.0714286 0.5
		0.206897 0.413793 0.37931
		0.459459 0.216216 0.324324
		0.527778 0.222222 0.25
		0.306122 0.408163 0.285714
		0.452381 0.22619 0.321429
		0.439024 0.268293 0.292683
		0.324324 0.337838 0.337838
		0.373134 0.335821 0.291045
		0.833333 0.166667 0
		0.25 0.416667 0.333333
		0.421053 0.315789 0.263158
		0.1 0.3 0.6
		0.24 0.48 0.28
		0.555556 0.185185 0.259259
		0.555556 0.222222 0.222222
		0.368421 0.342105 0.289474
		0.44898 0.346939 0.204082
		0.6 0.2 0.2
		0.35 0.35 0.3
		0.425 0.325 0.25
		0.285714 0.47619 0.238095
		0.351852 0.259259 0.388889
		0.345455 0.309091 0.345455
		0.395349 0.255814 0.348837
		0.395833 0.25 0.354167
		0.36 0.32 0.32
		0.428571 0.5 0.0714286
		0.290323 0.419355 0.290323
		0.37931 0.344828 0.275862
		0.4 0.228571 0.371429
		0.486486 0.27027 0.243243
		0.373333 0.32 0.306667
		0.459459 0.27027 0.27027
		0.45283 0.264151 0.283019
		0.40625 0.291667 0.302083
		0.5 0 0.5
		0.444444 0.444444 0.111111
		0.5 0.25 0.25
		0.5 0.388889 0.111111
		0.45 0.25 0.3
		0.419355 0.354839 0.225806
		0.25 0.5 0.25
		0.5 0.291667 0.208333
		0.461538 0.307692 0.230769
		0.466667 0.133333 0.4
		0.466667 0.333333 0.2
		0.384615 0.282051 0.333333
		0.294118 0.294118 0.411765
		0.5 0.1 0.4
		0.38 0.4 0.22
		0.481481 0.222222 0.296296
		0.421053 0.245614 0.333333
		0.421875 0.25 0.328125
		0.333333 0.4 0.266667
		0.423077 0.346154 0.230769
		0.451613 0.354839 0.193548
		0.2 0.65 0.15
		0.333333 0.555556 0.111111
		0.454545 0.254545 0.290909
		0.478261 0.304348 0.217391
		0.375 0.4375 0.1875
		0.407407 0.351852 0.240741
		0.357143 0.357143 0.285714
		0.4375 0.25 0.3125
		0.28125 0.46875 0.25
		0.45 0.2 0.35
		0.470588 0.235294 0.294118
		0.431818 0.318182 0.25
		0.387097 0.322581 0.290323
		0.416667 0.25 0.333333
		0.416667 0.27381 0.309524
		0.36 0.32 0.32
		0.487805 0.243902 0.268293
		0.454545 0.236364 0.309091
		0.416667 0.208333 0.375
		0.387097 0.225806 0.387097
		0.337079 0.393258 0.269663
		0.45 0.283333 0.266667
		0.483146 0.292135 0.224719
		0.356757 0.291892 0.351351
		0.375 0.458333 0.166667
		0.285714 0.4 0.314286
		0.40678 0.288136 0.305085
		0.242424 0.393939 0.363636
		0.444444 0.333333 0.222222
		0.384 0.352 0.264
		0.435897 0.346154 0.217949
		0.366337 0.346535 0.287129
		0.407186 0.317365 0.275449
		0.444444 0.444444 0.111111
		0.294118 0.235294 0.470588
		0.384615 0.307692 0.307692
		0.277778 0.388889 0.333333
		0.48 0.28 0.24
		0.486486 0.189189 0.324324
		0.47619 0.190476 0.333333
		0.485714 0.257143 0.257143
		0.410714 0.339286 0.25
		0.458333 0.208333 0.333333
		0.391304 0.347826 0.26087
		0.413043 0.347826 0.23913
		0.25 0.392857 0.357143
		0.357143 0.339286 0.303571
		0.422222 0.3 0.277778
		0.235294 0.411765 0.352941
		0.308824 0.323529 0.367647
		0.352381 0.27619 0.371429
		0.5 0.25 0.25
		0.294118 0.470588 0.235294
		0.3 0.225 0.475
		0.347826 0.130435 0.521739
		0.391304 0.282609 0.326087
		0.409639 0.289157 0.301205
		0.392157 0.372549 0.235294
		0.321429 0.309524 0.369048
		0.443662 0.288732 0.267606
		0.833333 0.166667 0
		0.5 0 0.5
		0.428571 0.142857 0.428571
		0.333333 0.333333 0.333333
		0.266667 0.466667 0.266667
		0.411765 0.352941 0.235294
		0.25 0.125 0.625
		0.470588 0.176471 0.352941
		0.428571 0.25 0.321429
		0.5 0.5 0
		0.25 0.25 0.5
		0.5 0.0555556 0.444444
		0.3125 0.3125 0.375
		0.555556 0.277778 0.166667
		0.369565 0.304348 0.326087
		0.454545 0.227273 0.318182
		0.361111 0.416667 0.222222
		0.347826 0.195652 0.456522
		0.555556 0.333333 0.111111
		0.4 0.3 0.3
		0.32 0.32 0.36
		0.461538 0.307692 0.230769
		0.5 0.333333 0.166667
		0.581395 0.209302 0.209302
		0.409091 0.272727 0.318182
		0.395349 0.325581 0.27907
		0.326531 0.346939 0.326531
		0.5 0.2 0.3
		0.2 0.5 0.3
		0.363636 0.227273 0.409091
		0.5 0.214286 0.285714
		0.461538 0.307692 0.230769
		0.444444 0.296296 0.259259
		0.25 0.0555556 0.694444
		0.291667 0.354167 0.354167
		0.387097 0.290323 0.322581
		0.5 0.1875 0.3125
		0.478261 0.130435 0.391304
		0.318182 0.272727 0.409091
		0.386364 0.386364 0.227273
		0.458333 0.25 0.291667
		0.409091 0.306818 0.284091
		0.323529 0.323529 0.352941
		0.395062 0.308642 0.296296
		0.421053 0.289474 0.289474
		0.333333 0.2 0.466667
		0.483871 0.322581 0.193548
		0.396226 0.301887 0.301887
		0.325581 0.209302 0.465116
		0.440678 0.305085 0.254237
		0.404255 0.265957 0.329787
		0.384615 0.230769 0.384615
		0.443182 0.329545 0.227273
		0.393701 0.283465 0.322835
		0.333333 0.333333 0.333333
		0.294118 0.411765 0.294118
		0.352941 0.294118 0.352941
		0.538462 0.461538 0
		0.366667 0.466667 0.166667
		0.421053 0.263158 0.315789
		0.56 0.28 0.16
		0.44 0.2 0.36
		0.309524 0.214286 0.47619
		0.45 0.2 0.35
		0.15 0.55 0.3
		0.384615 0.333333 0.282051
		0.357143 0.392857 0.25
		0.468085 0.319149 0.212766
		0.403846 0.307692 0.288462
		0.44186 0.27907 0.27907
		0.403226 0.274194 0.322581
		0.378378 0.324324 0.297297
		0.384615 0.307692 0.307692
		0.44 0.12 0.44
		0.285714 0.428571 0.285714
		0.30303 0.333333 0.363636
		0.44186 0.162791 0.395349
		0.402778 0.375 0.222222
		0.515152 0.363636 0.121212
		0.507692 0.276923 0.215385
		0.304878 0.365854 0.329268
	</TABLE>
</DEFINITION>
<DEFINITION>
	<FOR>Volúmen de un sólido en revolución</FOR>
	<GIVEN>Sólido de revolución</GIVEN>
	<TABLE>
		0.353567 0.400469 0.245964
		0.354011 0.397396 0.248593
		0.35272 0.403274 0.244006
	</TABLE>
</DEFINITION>
<DEFINITION>
	<FOR>Suma de números racionales</FOR>
	<GIVEN>División  aritmética de números enteros</GIVEN>
	<GIVEN>Multiplicación aritmética de números enteros</GIVEN>
	<GIVEN>Ley de signos</GIVEN>
	<GIVEN>Máximo común divisor</GIVEN>
	<GIVEN>Mínimo común múltiplo</GIVEN>
	<TABLE>
		0.380952 0.190476 0.428571
		0.416667 0.5 0.0833333
		0.37037 0.444444 0.185185
		0.2 0.3 0.5
		0.428571 0.285714 0.285714
		0.210526 0.473684 0.315789
		0.375 0.208333 0.416667
		0.411765 0.235294 0.352941
		0.519231 0.269231 0.211538
		0.35 0.4 0.25
		0.208333 0.333333 0.458333
		0.422222 0.244444 0.333333
		0.388889 0.222222 0.388889
		0.2 0.6 0.2
		0.444444 0.296296 0.259259
		0.366667 0.2 0.433333
		0.526316 0.263158 0.210526
		0.459016 0.245902 0.295082
		0.373134 0.343284 0.283582
		0.421053 0.315789 0.263158
		0.378378 0.310811 0.310811
		0.382353 0.441176 0.176471
		0.318182 0.318182 0.363636
		0.446809 0.276596 0.276596
		0.397059 0.220588 0.382353
		0.266667 0.311111 0.422222
		0.338129 0.338129 0.323741
		0.304348 0.304348 0.391304
		0.368421 0.473684 0.157895
		0.4 0.3 0.3
		0.47619 0.285714 0.238095
		0.444444 0.333333 0.222222
		0.407407 0.148148 0.444444
		0.425 0.325 0.25
		0.472222 0.25 0.277778
		0.333333 0.313725 0.352941
		0.40625 0.28125 0.3125
		0.444444 0.259259 0.296296
		0.390244 0.219512 0.390244
		0.238095 0.380952 0.380952
		0.5 0.363636 0.136364
		0.451613 0.129032 0.419355
		0.242424 0.515152 0.242424
		0.354839 0.387097 0.258065
		0.34188 0.350427 0.307692
		0.323077 0.369231 0.307692
		0.413043 0.369565 0.217391
		0.410714 0.294643 0.294643
		0.302326 0.325581 0.372093
		0.35 0.275 0.375
		0.461538 0.24359 0.294872
		0.295082 0.278689 0.42623
		0.38961 0.25974 0.350649
		0.363636 0.306818 0.329545
		0.306452 0.346774 0.346774
		0.329412 0.364706 0.305882
		0.350962 0.3125 0.336538
		0.373626 0.252747 0.373626
		0.423077 0.230769 0.346154
		0.340426 0.319149 0.340426
		0.386503 0.319018 0.294479
		0.421875 0.28125 0.296875
		0.381703 0.299685 0.318612
		0.382166 0.280255 0.33758
		0.276786 0.392857 0.330357
		0.345382 0.337349 0.317269
		0.347826 0.380435 0.271739
		0.347222 0.277778 0.375
		0.441341 0.268156 0.290503
		0.321285 0.37751 0.301205
		0.292683 0.323171 0.384146
		0.375587 0.295775 0.328638
		0.388889 0.287582 0.323529
		0.365297 0.310502 0.324201
		0.36 0.327273 0.312727
		0.323529 0.362745 0.313725
		0.427673 0.283019 0.289308
		0.397101 0.289855 0.313043
		0.368098 0.331288 0.300613
		0.377778 0.327778 0.294444
		0.374699 0.312048 0.313253
		0.392857 0.321429 0.285714
		0.481481 0.333333 0.185185
		0.380952 0.333333 0.285714
		0.277778 0.444444 0.277778
		0.157895 0.263158 0.578947
		0.418605 0.255814 0.325581
		0.384615 0.346154 0.269231
		0.4 0.228571 0.371429
		0.26506 0.337349 0.39759
		0.297297 0.297297 0.405405
		0.315789 0.315789 0.368421
		0.343284 0.432836 0.223881
		0.25 0.4375 0.3125
		0.384615 0.461538 0.153846
		0.460317 0.238095 0.301587
		0.295775 0.422535 0.28169
		0.38 0.34 0.28
		0.322034 0.415254 0.262712
		0.354839 0.247312 0.397849
		0.414634 0.341463 0.243902
		0.325444 0.390533 0.284024
		0.362319 0.304348 0.333333
		0.470588 0.235294 0.294118
		0.336283 0.380531 0.283186
		0.370079 0.299213 0.330709
		0.324324 0.351351 0.324324
		0.426877 0.256917 0.316206
		0.4 0.285714 0.314286
		0.340909 0.227273 0.431818
		0.310811 0.391892 0.297297
		0.533333 0.2 0.266667
		0.380952 0.285714 0.333333
		0.283019 0.283019 0.433962
		0.416667 0.302083 0.28125
		0.348837 0.372093 0.27907
		0.322835 0.346457 0.330709
		0.41791 0.268657 0.313433
		0.340909 0.340909 0.318182
		0.45 0.291667 0.258333
		0.333333 0.4 0.266667
		0.473684 0.368421 0.157895
		0.349206 0.238095 0.412698
		0.336283 0.40708 0.256637
		0.318182 0.318182 0.363636
		0.378049 0.323171 0.29878
		0.292035 0.345133 0.362832
		0.37931 0.264368 0.356322
		0.361991 0.289593 0.348416
		0.32967 0.296703 0.373626
		0.360656 0.213115 0.42623
		0.326797 0.313725 0.359477
		0.328638 0.300469 0.370892
		0.442177 0.278912 0.278912
		0.336478 0.330189 0.333333
		0.359504 0.280992 0.359504
		0.34 0.326667 0.333333
		0.365039 0.344473 0.290488
		0.356688 0.305732 0.33758
		0.368852 0.295082 0.336066
		0.320755 0.392453 0.286792
		0.358974 0.324786 0.316239
		0.369231 0.319231 0.311538
		0.341679 0.343152 0.315169
		0.346278 0.333333 0.320388
		0.387234 0.310638 0.302128
		0.393258 0.303371 0.303371
		0.341837 0.341837 0.316327
		0.311258 0.377483 0.311258
		0.375375 0.339339 0.285285
		0.375519 0.319502 0.304979
		0.378453 0.312155 0.309392
		0.369393 0.310026 0.32058
		0.337442 0.308166 0.354391
		0.320329 0.324435 0.355236
		0.33515 0.325159 0.339691
		0.353349 0.334873 0.311778
		0.337423 0.331288 0.331288
		0.400524 0.308901 0.290576
		0.363544 0.322811 0.313646
		0.334783 0.330435 0.334783
		0.342474 0.322637 0.334889
		0.390625 0.265625 0.34375
		0.422222 0.311111 0.266667
		0.442478 0.247788 0.309735
		0.375 0.3125 0.3125
		0.357143 0.285714 0.357143
		0.418605 0.27907 0.302326
		0.327586 0.284483 0.387931
		0.35443 0.278481 0.367089
		0.398907 0.245902 0.355191
		0.426966 0.235955 0.337079
		0.352941 0.279412 0.367647
		0.310811 0.283784 0.405405
		0.345455 0.381818 0.272727
		0.487179 0.179487 0.333333
		0.416667 0.277778 0.305556
		0.360902 0.323308 0.315789
		0.369565 0.271739 0.358696
		0.331839 0.331839 0.336323
		0.403409 0.340909 0.255682
		0.42735 0.299145 0.273504
		0.335463 0.354633 0.309904
		0.380952 0.269841 0.349206
		0.4 0.2 0.4
		0.352679 0.348214 0.299107
		0.343511 0.343511 0.312977
		0.341346 0.326923 0.331731
		0.368182 0.329545 0.302273
		0.39604 0.267327 0.336634
		0.318841 0.275362 0.405797
		0.335526 0.335526 0.328947
		0.468085 0.255319 0.276596
		0.459459 0.27027 0.27027
		0.364583 0.28125 0.354167
		0.414414 0.279279 0.306306
		0.336842 0.326316 0.336842
		0.333333 0.311111 0.355556
		0.333333 0.358974 0.307692
		0.333333 0.263889 0.402778
		0.401961 0.343137 0.254902
		0.309859 0.380282 0.309859
		0.408451 0.267606 0.323944
		0.392 0.32 0.288
		0.396739 0.320652 0.282609
		0.414966 0.29932 0.285714
		0.339623 0.336478 0.323899
		0.339207 0.321586 0.339207
		0.301075 0.333333 0.365591
		0.369767 0.311628 0.318605
		0.358025 0.351852 0.290123
		0.408696 0.33913 0.252174
		0.368421 0.299342 0.332237
		0.337912 0.31044 0.351648
		0.299213 0.338583 0.362205
		0.372699 0.322086 0.305215
		0.374408 0.319905 0.305687
		0.3875 0.303125 0.309375
		0.376812 0.299078 0.324111
		0.351064 0.336879 0.312057
		0.352423 0.339207 0.30837
		0.34413 0.325911 0.32996
		0.402077 0.299703 0.29822
		0.354508 0.338115 0.307377
		0.349081 0.325459 0.325459
		0.372174 0.288696 0.33913
		0.343164 0.319035 0.337802
		0.365365 0.302302 0.332332
		0.317259 0.340102 0.34264
		0.363636 0.30303 0.333333
		0.349606 0.343307 0.307087
		0.357918 0.321041 0.321041
		0.311864 0.328814 0.359322
		0.381659 0.296696 0.321645
		0.363322 0.318339 0.318339
		0.367844 0.323995 0.308161
		0.332491 0.321374 0.346134
		0.370038 0.300896 0.329065
		0.339731 0.31094 0.349328
		0.352682 0.32917 0.318148
		0.365609 0.309961 0.32443
		0.362406 0.300752 0.336842
		0.368819 0.316535 0.314646
	</TABLE>
</DEFINITION>
<DEFINITION>
	<FOR>Función  Lineal</FOR>
	<GIVEN>Dominio y rango de una función</GIVEN>
	<TABLE>
		0.184156 0.312999 0.502844
		0.188674 0.308106 0.503219
		0.190016 0.310514 0.49947
	</TABLE>
</DEFINITION>
<DEFINITION>
	<FOR>Función Cuadrática</FOR>
	<GIVEN>Dominio y rango de una función</GIVEN>
	<TABLE>
		0.187001 0.347313 0.465686
		0.183344 0.347847 0.468809
		0.189464 0.343046 0.46749
	</TABLE>
</DEFINITION>
<DEFINITION>
	<FOR>Función Polinomial</FOR>
	<GIVEN>Dominio y rango de una función</GIVEN>
	<TABLE>
		0.191963 0.397361 0.410675
		0.200602 0.39049 0.408909
		0.199177 0.392501 0.408322
	</TABLE>
</DEFINITION>
<DEFINITION>
	<FOR>Función  Exponencial</FOR>
	<GIVEN>Dominio y rango de una función</GIVEN>
	<TABLE>
		0.210542 0.444384 0.345074
		0.210418 0.43746 0.352122
		0.206897 0.440514 0.352589
	</TABLE>
</DEFINITION>
<DEFINITION>
	<FOR>Funciones  Logarítmicas</FOR>
	<GIVEN>Dominio y rango de una función</GIVEN>
	<TABLE>
		0.298414 0.394033 0.307553
		0.30114 0.394079 0.304782
		0.295542 0.393349 0.311108
	</TABLE>
</DEFINITION>
<DEFINITION>
	<FOR>Función  Valor absoluto</FOR>
	<GIVEN>Dominio y rango de una función</GIVEN>
	<TABLE>
		0.244553 0.255991 0.499455
		0.23897 0.261716 0.499314
		0.239343 0.258896 0.50176
	</TABLE>
</DEFINITION>
<DEFINITION>
	<FOR>Solución de  sistemas de  ecuaciones  por matrices</FOR>
	<GIVEN>Matriz  Inversa</GIVEN>
	<GIVEN>Método de Gauss Jordan</GIVEN>
	<GIVEN>Regla  de  Cramer</GIVEN>
	<TABLE>
		0.363492 0.291744 0.344764
		0.355185 0.307509 0.337306
		0.348458 0.289442 0.3621
		0.356697 0.296881 0.346422
		0.359287 0.301 0.339713
		0.376123 0.284981 0.338896
		0.353487 0.275964 0.370549
		0.372746 0.286792 0.340461
		0.35679 0.290947 0.352263
		0.36902 0.287053 0.343928
		0.35592 0.291139 0.352941
		0.385673 0.285818 0.328509
		0.369907 0.296759 0.333333
		0.369264 0.290822 0.339915
		0.368111 0.261102 0.370787
		0.357945 0.295337 0.346718
		0.366255 0.281379 0.352366
		0.354541 0.284248 0.361211
		0.370465 0.284108 0.345427
		0.359557 0.293792 0.34665
		0.366025 0.283713 0.350263
		0.356934 0.282482 0.360584
		0.390728 0.280629 0.328642
		0.352892 0.279966 0.367142
		0.355955 0.281437 0.362608
		0.34502 0.298008 0.356972
		0.346604 0.293521 0.359875
	</TABLE>
</DEFINITION>
<DEFINITION>
	<FOR>División de polinomio entre monomio</FOR>
	<GIVEN>División de  términos  algebraicos</GIVEN>
	<TABLE>
		0.154058 0.298647 0.547294
		0.148854 0.299642 0.551504
		0.150035 0.303506 0.546459
	</TABLE>
</DEFINITION>
<DEFINITION>
	<FOR>División de polinomio entre polinomio</FOR>
	<GIVEN>Multiplicación de  términos algebraicos</GIVEN>
	<GIVEN>Multiplicación de polinomios</GIVEN>
	<GIVEN>División de polinomio entre monomio</GIVEN>
	<TABLE>
		0.363874 0.304974 0.331152
		0.365947 0.291614 0.34244
		0.360974 0.296754 0.342272
		0.352034 0.325386 0.322581
		0.338086 0.31704 0.344874
		0.352725 0.31296 0.334315
		0.339679 0.314629 0.345691
		0.346405 0.314731 0.338864
		0.352844 0.320967 0.326189
		0.338757 0.306213 0.35503
		0.358129 0.305215 0.336656
		0.364393 0.292429 0.343178
		0.320251 0.339089 0.340659
		0.358566 0.299602 0.341833
		0.362824 0.315013 0.322163
		0.356389 0.305979 0.337632
		0.360099 0.305744 0.334157
		0.34389 0.3135 0.34261
		0.365459 0.303778 0.330763
		0.35236 0.310648 0.336992
		0.36077 0.31163 0.3276
		0.34472 0.302019 0.353261
		0.358974 0.296074 0.344952
		0.360054 0.30094 0.339006
		0.347955 0.301126 0.350919
		0.353207 0.31075 0.336043
		0.339489 0.312119 0.348392
	</TABLE>
</DEFINITION>
<DEFINITION>
	<FOR>Factorización</FOR>
	<GIVEN>Multiplicación de polinomios</GIVEN>
	<GIVEN>División de  términos  algebraicos</GIVEN>
	<GIVEN>Fórmula general  para ecuaciones  de segundo grado</GIVEN>
	<TABLE>
		0.441474 0.200238 0.358289
		0.433256 0.196759 0.369985
		0.417333 0.206 0.376667
		0.419664 0.204436 0.375899
		0.414047 0.198448 0.387505
		0.439916 0.181307 0.378777
		0.43783 0.204993 0.357177
		0.427994 0.198134 0.373872
		0.420032 0.205708 0.37426
		0.417469 0.190109 0.392421
		0.421008 0.193697 0.385294
		0.42963 0.174411 0.39596
		0.410818 0.203477 0.385705
		0.415433 0.195155 0.389412
		0.400454 0.204391 0.395155
		0.415369 0.206429 0.378202
		0.43169 0.203771 0.364539
		0.429145 0.200229 0.370625
		0.407221 0.208867 0.383912
		0.42428 0.199752 0.375968
		0.414255 0.20418 0.381565
		0.432306 0.186741 0.380952
		0.423459 0.203446 0.373095
		0.41676 0.220472 0.362767
		0.426211 0.1942 0.379589
		0.417065 0.195318 0.387616
		0.413199 0.197562 0.389239
	</TABLE>
</DEFINITION>
<DEFINITION>
	<FOR>Productos notables</FOR>
	<GIVEN>Factorización</GIVEN>
	<GIVEN>Multiplicación de polinomios</GIVEN>
	<TABLE>
		0.397342 0.255443 0.347215
		0.395842 0.251824 0.352334
		0.398057 0.255317 0.346626
		0.395443 0.257933 0.346623
		0.412833 0.24436 0.342807
		0.406304 0.250858 0.342839
		0.393288 0.253959 0.352753
		0.410082 0.250833 0.339086
		0.391732 0.253022 0.355247
	</TABLE>
</DEFINITION>
<DEFINITION>
	<FOR>Perímetros áreas y volúmenes</FOR>
	<GIVEN>Postulados y teoremas</GIVEN>
	<TABLE>
		0.178521 0.309301 0.512177
		0.17986 0.308948 0.511192
		0.179865 0.30718 0.512955
	</TABLE>
</DEFINITION>
<DEFINITION>
	<FOR>Ley de los Senos</FOR>
	<GIVEN>Ley de los Cosenos</GIVEN>
	<TABLE>
		0.314698 0.341674 0.343628
		0.315408 0.340947 0.343645
